svm_type c_svc
kernel_type linear
nr_class 5
total_sv 77
rho 0.288387 -0.215771 -0.542321 -0.737353 -0.384671 -0.570192 -0.607389 -0.321566 -0.421814 -0.122496
label 0 1 2 3 4
probA -2.61867 -3.62668 -3.2251 -3.24303 -3.62334 -3.19734 -3.12218 -3.27689 -3.2633 -2.93517
probB -0.374573 -0.114336 -0.197639 -0.275135 0.0962001 -0.220827 -0.201777 -0.347528 -0.348302 -0.0467519
nr_sv 18 22 17 11 9
SV
0 0.2993411503701192 0 0 0:-0.00397 1:-0.03443 2:0.030687 3:0.03151 4:-0.02954 5:0.066096 6:0.018226 7:-0.014134 8:-0.028964 9:-0.046273 10:0.080444 11:-0.00153 12:0.09245 13:0.027324 14:0.086055 15:0.014498 16:-0.015763 17:0.011332 18:-0.041811 19:0.038419 20:-0.011979 21:-0.074184 22:0.005456 23:0.008068 24:-0.028629 25:0.024872 26:0.013022 27:0.048312 28:0.009657 29:0.013782 30:0.04124 31:0.003335 32:-0.063247 33:-0.001276 34:-0.10605 35:-0.008257 36:0.050524 37:0.09866 38:0.028068 39:-0.056753 40:0.042559 41:-0.012051 42:-0.00513 43:-0.00114 44:0.11305 45:-0.018228 46:0.049146 47:-0.064047 48:-0.019931 49:-0.04252 50:-0.009291 51:0.020978 52:-0.054802 53:-0.00217 54:-0.091416 55:-0.001745 56:-0.050014 57:-0.023045 58:-0.001889 59:0.080347 60:0.017546 61:-0.032877 62:-0.050122 63:0.010698 64:-0.028669 65:0.062537 66:-0.00982 67:-0.045321 68:-0.046567 69:0.027804 70:-0.014203 71:0.025389 72:0.01729 73:-0.007951 74:-0.013232 75:0.008705 76:-0.013061 77:-0.016602 78:-0.044986 79:-0.069758 80:0.032472 81:0.067835 82:0.028992 83:-0.039745 84:0.037726 85:-0.000178 86:-0.006052 87:0.043016 88:-0.001347 89:0.033609 90:-0.028065 91:-0.008877 92:-0.040932 93:0.064529 94:0.029574 95:-0.051467 96:-0.006159 97:-0.046264 98:0.018146 99:-0.063585 100:-0.041729 101:-0.005128 102:0.006505 103:0.005041 104:0.022668 105:0.016873 106:-0.067362 107:-0.031561 108:-0.083242 109:0.004895 110:-0.060991 111:0.088665 112:-0.071738 113:0.037735 114:0.102509 115:0.043818 116:-0.030709 117:-0.026596 118:0.00304 119:-0.025089 120:0.03999 121:0.063109 122:0.038884 123:-0.083101 124:0.026588 125:-0.064077 126:-0.059308 127:0.034414 128:0.0307 129:-0.06432 130:0.052844 131:0.037167 132:0.009703 133:0.075466 134:0.00202 135:-0.058592 136:0.005971 137:-0.073995 138:-0.05445 139:-0.022886 140:0.023781 141:0.028183 142:0.01206 143:0.078772 144:-0.044169 145:-0.023112 146:0.027234 147:0.019495 148:-0.00576 149:0.00517 150:-0.051928 151:-0.028476 152:0.011279 153:-0.018686 154:0.055238 155:-0.009831 156:-0.034651 157:-0.017991 158:0.054233 159:-0.007451 160:0.027034 161:0.023429 162:0.025656 163:-0.018026 164:0.033922 165:-0.000213 166:-0.044731 167:-0.084694 168:0.094721 169:0.01263 170:-0.015306 171:0.08455 172:-0.016881 173:-0.017104 174:0.002244 175:-0.000991 176:0.049204 177:-0.024269 178:0.032066 179:0.020867 180:0.026019 181:-0.000456 182:-0.007618 183:-0.044524 184:-0.020789 185:-0.055345 186:-0.000951 187:0.022873 188:0.033951 189:-0.061883 190:-0.01579 191:-0.020538 192:0.031829 193:-0.003663 194:0.019099 195:0.000431 196:0.049932 197:-0.034579 198:-0.000676 199:-0.011751 200:0.079971 201:-0.064205 202:0.055348 203:0.012034 204:-0.044924 205:0.104356 206:-0.033584 207:0.006674 208:0.034968 209:-0.051089 210:0.001617 211:0.008295 212:-0.010778 213:-0.003679 214:0.076541 215:-0.090124 216:-0.026043 217:0.044941 218:-0.009434 219:-0.001243 220:-0.010556 221:-0.011413 222:-0.06473 223:-0.069458 224:0.002639 225:-0.022541 226:0.077243 227:0.10429 228:-0.070846 229:-0.030267 230:-0.072385 231:0.024516 232:-0.005914 233:-0.011866 234:-0.02761 235:0.090396 236:0.023727 237:-0.008583 238:-0.02916 239:0.008046 240:-0.001282 241:0.106577 242:0.013688 243:0.069762 244:-0.023673 245:-0.015243 246:-0.007464 247:0.025184 248:-0.124764 249:0.079919 250:-0.029471 251:0.049915 252:0.007332 253:-0.005244 254:-0.001232 255:0.008608 256:-0.031849 257:-0.03878 258:-0.014907 259:0.000879 260:0.018247 261:-0.101615 262:-0.050083 263:0.021958 264:-0.023353 265:0.050056 266:0.031283 267:-0.051803 268:-0.002507 269:-0.034555 270:-0.019195 271:0.003028 272:0.06421 273:0.034718 274:0.045364 275:-0.037241 276:-0.038689 277:-0.035916 278:0.000809 279:-0.032108 280:-0.110639 281:-0.00075 282:-0.006929 283:-0.024712 284:0.028869 285:0.036748 286:0.066603 287:0.019279 288:-0.014799 289:-0.11378 290:0.059937 291:0.033365 292:-0.026556 293:0.066366 294:0.022335 295:0.012297 296:0.027762 297:0.029016 298:0.032079 299:-0.025505 300:0.061279 301:-0.013228 302:0.026497 303:-0.070719 304:0.026074 305:0.03212 306:-0.081759 307:0.044726 308:0.038929 309:0.045181 310:0.086132 311:0.011923 312:0.04979 313:0.032113 314:-0.007512 315:-0.018129 316:0.007656 317:0.027496 318:-0.056546 319:0.041482 320:-0.035537 321:-0.046213 322:-0.068578 323:0.022555 324:0.021387 325:-0.034389 326:0.020491 327:0.044522 328:0.038735 329:-0.026412 330:0.002885 331:-0.081495 332:0.005547 333:-0.021696 334:0.018738 335:-0.024695 336:0.027471 337:-0.027674 338:0.052236 339:0.050954 340:-0.008914 341:-0.074872 342:0.003744 343:0.043283 344:0.031319 345:-0.041245 346:0.024802 347:-0.00214 348:-0.029622 349:0.03445 350:0.067186 351:-0.000338 352:0.011291 353:0.016433 354:0.028202 355:0.115674 356:0.006559 357:-0.048865 358:-0.034732 359:0.038847 360:0.001055 361:-0.02229 362:-0.002562 363:-0.008205 364:-0.032577 365:-0.021583 366:0.008518 367:0.006654 368:0.035867 369:-0.024099 370:0.062558 371:-0.021828 372:0.062 373:0.011055 374:0.061887 375:0.001177 376:0.117716 377:-0.061219 378:0.002902 379:-0.070891 380:-0.01767 381:-0.053311 382:0.020521 383:-0.034337 384:-0.020982 385:-0.037774 386:0.006002 387:-0.015483 388:0.006737 389:-0.10546 390:0.032308 391:0.009174 392:-0.010733 393:-0.037079 394:-0.010942 395:0.051114 396:0.029889 397:0.04541 398:-0.072336 399:0.019995 400:-0.049738 401:0.073772 402:0.094582 403:-0.00012 404:-0.071231 405:-0.015074 406:0.063784 407:0.011627 408:0.006482 409:0.014739 410:0.065045 411:-0.015533 412:0.019517 413:-0.007623 414:0.028841 415:0.0622 416:-0.10027 417:-0.005229 418:0.028646 419:-0.057002 420:0.003723 421:-0.01216 422:-0.051757 423:-0.026617 424:-0.102866 425:0.008983 426:-0.048514 427:-0.034411 428:0.014608 429:0.004681 430:0.002596 431:0.039311 432:0.009148 433:0.040959 434:-0.000386 435:0.068634 436:-0.017295 437:0.025188 438:0.037136 439:-0.008584 440:-0.024233 441:0.06588 442:0.016864 443:-0.021959 444:-0.002218 445:-0.024786 446:0.045772 447:-0.040149 448:0.069904 449:0.101688 450:-0.088819 451:-0.066312 452:-0.010578 453:-0.013618 454:0.021916 455:0.105106 456:0.04589 457:0.016374 458:-0.076341 459:-0.042473 460:-0.006492 461:-0.059603 462:0.072277 463:-0.024564 464:-0.011379 465:-0.046608 466:-0.052386 467:0.043923 468:-0.044113 469:0.028046 470:0.011878 471:-0.049046 472:-0.027668 473:-0.013061 474:-0.003668 475:-0.012566 476:0.048485 477:0.055847 478:-0.013271 479:-0.024594 480:0.034678 481:-0.057528 482:-0.076461 483:-0.015064 484:-0.007441 485:0.063508 486:-0.016208 487:-0.051317 488:0.047444 489:0.065631 490:-0.054051 491:0.020366 492:-0.023295 493:0.003294 494:0.00953 495:-0.05676 496:-0.007364 497:-0.083719 498:0.025247 499:0.041696 500:0.003779 501:-0.051209 502:-0.049405 503:-0.078146 504:-0.052225 505:0.015443 506:0.073747 507:0.008276 508:0.075988 509:0.088309 510:0.026958 511:0.035004 
1 0 0 0 0:0.058899 1:-0.033581 2:0.024978 3:0.00315 4:-0.068399 5:-0.000233 6:-0.045906 7:0.002073 8:-0.051068 9:-0.034677 10:0.094247 11:-0.001945 12:0.057423 13:0.051199 14:0.068848 15:0.01555 16:-0.042439 17:0.024516 18:-0.046107 19:0.103391 20:0.023522 21:-0.090467 22:-0.03485 23:-0.05508 24:-0.02213 25:-0.019376 26:0.015967 27:0.00895 28:0.023741 29:-0.038819 30:0.063666 31:-0.051537 32:-0.072808 33:0.083764 34:-0.091336 35:-0.006696 36:-0.003941 37:0.063998 38:0.052709 39:-0.007888 40:0.003674 41:0.008095 42:-0.036871 43:0.018522 44:0.078553 45:0.011444 46:0.014223 47:-0.056394 48:-0.010392 49:-0.010512 50:0.002803 51:0.004363 52:-0.046002 53:0.016267 54:-0.094271 55:-0.028875 56:-0.04995 57:-0.064351 58:-0.06226 59:0.050741 60:0.023385 61:0.016156 62:-0.020577 63:0.087519 64:0.02737 65:0.005503 66:0.021635 67:-0.045533 68:-0.018058 69:-0.014843 70:-0.010958 71:0.026585 72:-0.019211 73:-0.015855 74:-0.024399 75:-0.008992 76:-0.025043 77:-0.017234 78:0.001987 79:-0.088238 80:0.046094 81:0.069397 82:0.001555 83:-0.002228 84:0.030962 85:0.035597 86:0.049594 87:0.048153 88:1.2e-05 89:0.093003 90:-0.002049 91:-0.025397 92:-0.111001 93:0.006063 94:-0.011784 95:-0.013118 96:0.020872 97:-0.023142 98:-0.016993 99:-0.107469 100:0.013536 101:0.011313 102:0.016958 103:0.026317 104:0.000972 105:-0.011203 106:-0.026682 107:0.003901 108:-0.087484 109:0.00037 110:-0.019709 111:0.039143 112:0.008695 113:0.084349 114:0.094206 115:0.041189 116:-0.063551 117:-0.004299 118:0.017738 119:0.011743 120:0.024658 121:0.026888 122:0.019945 123:-0.052768 124:-0.008178 125:-0.040858 126:-0.083464 127:0.017497 128:-0.011681 129:-0.045556 130:0.028869 131:0.045938 132:-0.05363 133:0.020567 134:0.078536 135:-0.057384 136:0.015335 137:-0.046608 138:-0.088224 139:0.015293 140:0.043581 141:0.052799 142:0.007306 143:0.028213 144:-0.035194 145:-0.039022 146:0.041534 147:0.099403 148:-0.03501 149:-0.010486 150:-0.045608 151:-0.00695 152:-0.006959 153:-0.033877 154:0.046866 155:0.020414 156:0.017504 157:-0.022136 158:0.009611 159:-0.016816 160:0.008178 161:0.030176 162:0.017191 163:-0.044808 164:0.031 165:0.015987 166:-0.06703 167:-0.032208 168:0.047183 169:-0.002136 170:-0.032426 171:0.055988 172:0.000559 173:-0.015167 174:0.02833 175:-0.021636 176:-0.015679 177:-0.043686 178:0.008001 179:0.048848 180:0.024354 181:-0.015198 182:0.004764 183:-0.03568 184:0.000471 185:-0.016908 186:-0.011418 187:-0.005527 188:-0.001492 189:-0.078395 190:-0.048683 191:-0.027656 192:0.047363 193:0.018715 194:0.023249 195:-0.015879 196:-0.022254 197:-0.031311 198:0.040054 199:0.014261 200:0.054772 201:-0.072373 202:-0.018873 203:0.041794 204:-0.028677 205:0.04596 206:-0.045577 207:0.039072 208:0.040429 209:-0.016461 210:-0.045862 211:0.021917 212:-0.012983 213:-0.04415 214:0.029894 215:-0.10375 216:-0.02264 217:0.111747 218:0.072719 219:0.005375 220:0.004166 221:0.020571 222:-0.029396 223:-0.015797 224:0.078617 225:0.006651 226:0.059821 227:0.044324 228:-0.099299 229:-0.05261 230:-0.02468 231:0.021055 232:0.058777 233:-0.031952 234:0.016172 235:0.041895 236:0.003865 237:-0.024711 238:0.021052 239:0.041304 240:-0.00202 241:0.066799 242:0.005784 243:0.064217 244:-0.045223 245:0.003499 246:-0.021532 247:0.029045 248:-0.073085 249:0.047502 250:-0.065296 251:0.017089 252:0.029906 253:0.021168 254:-0.010978 255:0.009103 256:-0.003082 257:0.002426 258:-0.019992 259:0.041773 260:-0.014901 261:-0.108392 262:-0.071917 263:-0.029846 264:-0.00989 265:0.065395 266:0.068875 267:-0.077016 268:0.005285 269:0.004804 270:-0.010488 271:-0.013656 272:0.074215 273:-0.016086 274:0.050271 275:0.029264 276:-0.023391 277:-0.079863 278:-0.014938 279:-0.028595 280:-0.136153 281:-0.040175 282:0.040837 283:0.028676 284:0.027995 285:0.06982 286:0.065726 287:0.0063 288:0.02051 289:-0.030533 290:0.072199 291:0.004363 292:-0.006794 293:0.046788 294:-0.008243 295:-0.003133 296:-0.002899 297:0.048618 298:0.004009 299:-0.033244 300:0.015494 301:-0.025527 302:-0.023929 303:-0.035821 304:0.033451 305:-0.002609 306:-0.067158 307:0.050801 308:0.013691 309:0.038477 310:0.027502 311:-0.018866 312:0.029665 313:0.056675 314:0.025901 315:-0.086226 316:-0.010597 317:-0.056615 318:-0.023012 319:0.0984 320:-0.064408 321:-0.027438 322:-0.062656 323:-0.017369 324:0.02763 325:-0.038444 326:0.0555 327:0.069043 328:0.031232 329:0.023128 330:-0.009773 331:-0.080463 332:-0.081401 333:-0.014898 334:0.078324 335:-0.000844 336:0.028303 337:-0.036828 338:0.004033 339:0.069 340:-0.02052 341:-0.072916 342:0.057934 343:0.04141 344:0.01386 345:0.033604 346:0.028268 347:-0.03123 348:-0.010574 349:0.079974 350:0.034026 351:-0.026982 352:0.058945 353:0.066129 354:0.030491 355:0.02702 356:-0.036259 357:-0.044493 358:-0.03869 359:0.001637 360:0.042681 361:-0.080503 362:-0.001991 363:-0.001847 364:-0.024903 365:-0.037169 366:0.050488 367:0.036465 368:0.02342 369:-0.047645 370:0.025131 371:-0.018325 372:0.08427 373:0.012906 374:0.025568 375:-0.017715 376:0.091818 377:-0.029877 378:-0.000492 379:-0.006512 380:0.029717 381:-0.041455 382:-0.009557 383:-0.042179 384:-0.017483 385:-0.065568 386:-0.0042 387:0.032672 388:6.4e-05 389:-0.032148 390:-0.00866 391:0.02172 392:-0.061484 393:-0.015856 394:-0.041842 395:0.064594 396:-0.070135 397:0.030693 398:-0.06025 399:0.0039 400:-0.004506 401:0.030804 402:0.10838 403:-0.032234 404:-0.027894 405:0.025897 406:0.04398 407:0.04887 408:-0.004815 409:-0.056671 410:0.040216 411:0.016965 412:0.031131 413:0.036642 414:-0.010385 415:-0.036947 416:-0.062715 417:0.006541 418:0.021522 419:-0.068899 420:-0.029814 421:0.052396 422:-0.07153 423:-0.031238 424:-0.035412 425:0.029192 426:-0.026766 427:-0.082583 428:0.032083 429:-0.014283 430:0.050693 431:-0.000359 432:0.040145 433:0.016099 434:-0.013286 435:0.086639 436:-0.026476 437:-0.001797 438:-0.020192 439:0.031449 440:0.004057 441:0.062313 442:-0.007682 443:0.000723 444:-0.027692 445:-0.006997 446:0.051721 447:-0.043528 448:0.070198 449:0.062305 450:-0.063048 451:-0.043377 452:0.031292 453:0.061798 454:0.00564 455:0.065891 456:0.061981 457:0.023712 458:-0.065015 459:-0.034136 460:0.019598 461:-0.081471 462:0.114517 463:-0.030067 464:-0.019958 465:0.009897 466:0.011772 467:0.049351 468:-0.056647 469:0.087465 470:0.04086 471:-0.021592 472:0.019367 473:-0.02498 474:-0.019892 475:-0.037181 476:0.017425 477:-0.010627 478:-0.007158 479:-0.057065 480:0.049047 481:-0.034553 482:-0.030482 483:0.037194 484:-0.028413 485:0.058268 486:0.039116 487:-0.038584 488:0.084459 489:0.052092 490:-0.091558 491:-0.005132 492:0.015518 493:0.06161 494:-0.028367 495:-0.065995 496:-0.008141 497:-0.067283 498:0.045474 499:0.004821 500:0.011611 501:-0.025493 502:-0.089208 503:-0.077313 504:-0.045209 505:-0.003543 506:0.039066 507:0.025476 508:-0.019967 509:-0.023768 510:0.090822 511:0.079498 
0 0.550926322793247 0 0.4140708421503922 0:0.0384 1:-0.04353 2:0.037243 3:0.006508 4:-0.08776 5:0.04557 6:-0.035482 7:-0.033944 8:-0.015771 9:-0.027064 10:0.074566 11:-0.021803 12:0.057671 13:0.054608 14:0.049862 15:0.02393 16:-0.040687 17:0.012602 18:-0.019429 19:0.018596 20:-0.029256 21:-0.078606 22:-0.04692 23:-0.029368 24:-0.020208 25:0.005635 26:-0.068979 27:-0.023699 28:-0.036457 29:-0.042009 30:0.038698 31:0.048784 32:0.000883 33:0.109426 34:-0.119314 35:0.014014 36:-0.002411 37:0.059656 38:0.024451 39:0.004001 40:-0.001485 41:-0.047073 42:-0.032573 43:0.031876 44:0.102573 45:0.039169 46:0.019878 47:-0.076427 48:0.025217 49:-0.044482 50:0.04117 51:0.024281 52:-0.040095 53:0.044696 54:-0.093802 55:-0.024501 56:-0.016905 57:-0.051301 58:-0.043698 59:0.033602 60:-0.017221 61:-0.020168 62:-0.039304 63:0.028483 64:-0.02491 65:0.060477 66:-0.025993 67:-0.00495 68:-0.054068 69:0.017699 70:0.014349 71:-0.009053 72:0.020624 73:0.027337 74:-0.01666 75:0.00994 76:-0.060233 77:0.044641 78:-0.056252 79:-0.065989 80:0.040707 81:0.070286 82:-0.008409 83:-0.017128 84:0.028822 85:0.048717 86:0.036917 87:0.030933 88:-0.002163 89:0.084129 90:-0.021539 91:0.007181 92:-0.060791 93:0.039785 94:0.052903 95:0.002991 96:0.005874 97:-5.5e-05 98:-0.027868 99:-0.058104 100:0.030245 101:0.034331 102:0.037742 103:-0.03836 104:0.028032 105:-0.032943 106:-0.000735 107:-0.041756 108:-0.14259 109:-0.043023 110:-0.045397 111:0.011398 112:-0.041144 113:0.02312 114:0.035831 115:0.058993 116:-0.019646 117:-0.027784 118:0.00625 119:0.019689 120:-0.01595 121:0.03629 122:-0.000844 123:-0.012996 124:-0.00876 125:-0.075589 126:-0.051331 127:0.034359 128:0.059562 129:-0.093854 130:0.037332 131:0.030392 132:-0.041703 133:0.058705 134:0.062829 135:-0.045796 136:0.03107 137:-0.08677 138:-0.0948 139:0.014471 140:0.045362 141:0.047014 142:-0.029128 143:0.001181 144:0.014231 145:-0.053757 146:0.018937 147:0.074072 148:-0.01538 149:0.008553 150:0.002291 151:-0.011353 152:-0.025365 153:-0.012903 154:0.04134 155:0.061169 156:-0.00959 157:0.007582 158:0.076862 159:-0.057354 160:-0.019517 161:0.053224 162:-0.015297 163:-0.015281 164:0.018818 165:-0.049267 166:-0.064431 167:-0.004145 168:0.081586 169:0.053031 170:-0.015772 171:0.096626 172:-0.032589 173:-0.01705 174:0.013161 175:-0.007811 176:-0.007836 177:-0.034928 178:-0.002391 179:0.004803 180:0.033248 181:0.032221 182:-0.014662 183:0.021486 184:0.008447 185:-0.014058 186:0.050879 187:0.029321 188:0.024663 189:-0.036816 190:0.027823 191:-0.018207 192:0.049751 193:0.044832 194:-0.012224 195:-0.05385 196:-0.009406 197:-0.030972 198:0.009637 199:0.010041 200:0.106522 201:-0.017062 202:0.034302 203:0.10921 204:-0.019812 205:0.046592 206:-0.025257 207:0.02136 208:0.046961 209:0.006149 210:-0.024825 211:-0.026831 212:-0.007523 213:0.025957 214:0.075007 215:-0.099633 216:0.008079 217:0.047136 218:0.093478 219:0.011964 220:0.026127 221:0.000904 222:-0.030084 223:-0.050946 224:0.027303 225:-0.038176 226:0.065383 227:0.087537 228:-0.104168 229:0.039355 230:-0.014865 231:0.018794 232:-0.011018 233:0.015062 234:0.007519 235:0.019921 236:0.018046 237:-0.039325 238:0.040963 239:0.016926 240:0.001055 241:0.115997 242:0.027222 243:0.069317 244:-0.053536 245:-0.017306 246:0.004455 247:0.035486 248:-0.043248 249:0.075891 250:-0.0401 251:0.002346 252:0.042596 253:-0.011588 254:-0.018545 255:0.054095 256:0.011153 257:-0.041996 258:-0.016117 259:0.069256 260:-0.0336 261:-0.060856 262:-0.042874 263:0.000897 264:-0.040054 265:0.033522 266:0.076524 267:-0.087274 268:-0.014801 269:-0.014173 270:-0.041602 271:-0.027019 272:0.028161 273:0.050909 274:0.070837 275:-0.015136 276:-0.041679 277:-0.055492 278:-0.037306 279:-0.008857 280:-0.127496 281:0.009003 282:0.012737 283:-0.006578 284:0.008632 285:0.053811 286:0.01611 287:-0.027364 288:-0.016906 289:-0.043191 290:0.073653 291:0.081257 292:0.046087 293:0.003327 294:0.026484 295:-0.054339 296:0.025153 297:0.042418 298:0.031705 299:-0.006441 300:-0.024003 301:-0.041303 302:-0.014453 303:-0.010781 304:0.022135 305:0.018677 306:-0.090833 307:0.04421 308:0.092693 309:0.014445 310:-0.031573 311:0.012397 312:0.05374 313:0.011863 314:0.004894 315:-0.096254 316:0.006588 317:-0.018504 318:0.050644 319:0.07548 320:-0.046366 321:-0.013448 322:-0.072977 323:-0.074361 324:0.008977 325:-0.004199 326:0.010087 327:0.040257 328:0.014393 329:0.028121 330:-0.031947 331:-0.040163 332:-0.04284 333:-0.016219 334:0.035152 335:0.037995 336:0.016747 337:-0.062456 338:0.038659 339:-0.015425 340:-0.063687 341:-0.044017 342:0.097788 343:-0.049916 344:0.003266 345:-0.00309 346:0.031081 347:-0.023017 348:-0.038865 349:0.073804 350:0.026701 351:0.018723 352:-0.026449 353:0.059491 354:0.080564 355:0.007287 356:0.000117 357:-0.037004 358:-0.05854 359:-0.01073 360:-0.014084 361:-0.090421 362:0.057882 363:-0.010727 364:-0.021798 365:-0.067099 366:0.034181 367:0.062871 368:-0.002614 369:-0.056154 370:0.052654 371:-0.000863 372:0.026546 373:-0.013585 374:0.013131 375:-0.007287 376:0.095004 377:-0.010004 378:-0.011667 379:-0.014869 380:-0.021765 381:-0.09173 382:-0.022222 383:-0.01702 384:-0.04863 385:-0.06942 386:-0.065718 387:-0.001018 388:-0.005238 389:-0.038044 390:-0.004396 391:0.01748 392:0.044404 393:-0.0094 394:-0.044531 395:0.030424 396:-0.040337 397:0.015862 398:-0.062072 399:0.015728 400:0.00628 401:-0.010238 402:0.064646 403:-0.035993 404:-0.011542 405:-0.013349 406:0.081916 407:0.038673 408:-0.034167 409:-0.041885 410:0.039015 411:-0.02675 412:0.06026 413:-0.006681 414:0.000577 415:0.031147 416:-0.074979 417:-0.054236 418:0.008819 419:-0.031323 420:-0.027201 421:0.019922 422:-0.052148 423:-0.017181 424:-0.08578 425:0.036652 426:-0.01965 427:-0.047545 428:0.027284 429:-0.049914 430:0.085499 431:-0.010859 432:-0.028917 433:-0.012696 434:0.070314 435:0.100128 436:0.00312 437:-0.021775 438:0.007915 439:-0.037498 440:-0.023165 441:0.070717 442:0.032079 443:0.03056 444:-0.007582 445:-0.026964 446:0.02697 447:-0.047973 448:0.059439 449:0.032969 450:-0.102665 451:0.006979 452:0.001935 453:0.022377 454:-0.020814 455:0.06023 456:0.01795 457:0.065386 458:-0.013359 459:0.010265 460:-0.035947 461:-0.055988 462:0.105657 463:-0.052547 464:-0.031666 465:-0.011322 466:-0.069906 467:0.050658 468:-0.01043 469:0.058039 470:0.027598 471:-0.072771 472:-0.047576 473:-0.004517 474:-0.015704 475:-0.063075 476:0.006524 477:-0.00888 478:0.050538 479:-0.002249 480:0.040887 481:-0.05337 482:-0.051533 483:-0.005542 484:-0.019241 485:-0.011764 486:0.01356 487:-0.019455 488:0.059965 489:0.011356 490:-0.096531 491:0.006203 492:0.05525 493:0.014997 494:-0.028039 495:-0.045206 496:-0.030316 497:-0.024259 498:0.109765 499:0.003584 500:0.008107 501:-0.025268 502:-0.040628 503:-0.021332 504:-0.030569 505:0.019111 506:0.031621 507:-0.033459 508:0.013692 509:-0.017507 510:0.011653 511:0.080375 
0.03667731764606529 0 0 0 0:0.006867 1:-0.039724 2:0.024193 3:0.036895 4:-0.065303 5:0.038852 6:-0.016546 7:-0.001872 8:-0.041736 9:-0.00635 10:0.10559 11:-0.011734 12:0.038958 13:0.063236 14:0.073277 15:0.013606 16:-0.068456 17:0.026849 18:-0.076536 19:0.063943 20:-0.005835 21:-0.055375 22:-0.032678 23:-0.007274 24:-0.039531 25:-0.004295 26:-0.0228 27:0.050236 28:0.011719 29:-0.061005 30:0.066062 31:0.00217 32:-0.039044 33:0.048493 34:-0.113808 35:0.035289 36:0.016107 37:0.068843 38:0.059846 39:-0.029412 40:0.018207 41:0.018432 42:0.022263 43:-0.001216 44:0.121799 45:0.013652 46:0.010309 47:-0.075972 48:0.009335 49:-0.023996 50:0.032264 51:0.006719 52:-0.035162 53:0.020605 54:-0.071179 55:-0.005574 56:-0.047904 57:-0.090146 58:-0.020418 59:0.051871 60:0.012496 61:0.004077 62:-0.02655 63:0.0394 64:0.008642 65:0.040772 66:-0.010349 67:-0.041111 68:-0.017559 69:0.033787 70:-0.010785 71:-0.005466 72:0.027423 73:-0.00998 74:-0.000721 75:0.024074 76:-0.002073 77:0.021746 78:-0.057225 79:-0.06414 80:0.061743 81:0.095261 82:-0.01135 83:0.012405 84:0.078278 85:0.035791 86:0.035491 87:0.026545 88:-0.014369 89:0.061481 90:-0.029358 91:0.009947 92:-0.054552 93:0.049392 94:-0.011207 95:-0.002652 96:-0.021261 97:-0.048577 98:0.039443 99:-0.055511 100:0.005331 101:0.031009 102:0.02804 103:-0.022774 104:0.003234 105:0.000572 106:-0.059833 107:-0.041963 108:-0.091375 109:-0.001621 110:-0.044625 111:0.062759 112:-0.008216 113:0.070829 114:0.072564 115:0.047435 116:-0.065594 117:-0.036889 118:-0.024796 119:-0.011024 120:0.007202 121:0.015863 122:0.019524 123:-0.034442 124:-0.008516 125:-0.094798 126:-0.0787 127:0.022076 128:0.038237 129:-0.032965 130:0.042439 131:0.010299 132:-0.034386 133:0.06261 134:0.04853 135:-0.020679 136:0.057561 137:-0.083747 138:-0.087957 139:-0.006202 140:0.053932 141:0.042822 142:0.034796 143:0.038157 144:-0.031806 145:-0.031026 146:0.004054 147:0.084048 148:-0.043937 149:-0.011428 150:-0.066355 151:-0.021539 152:-0.02058 153:-0.02119 154:0.056816 155:0.015211 156:-0.023124 157:0.000212 158:-0.001489 159:-0.072427 160:0.020795 161:0.052016 162:0.016054 163:-0.048637 164:0.058205 165:-0.051843 166:-0.074556 167:-0.044773 168:0.073446 169:0.003761 170:-0.054796 171:0.059254 172:-0.03587 173:-0.002049 174:0.02404 175:-0.017079 176:0.046274 177:-0.004963 178:-0.027965 179:0.027993 180:0.007488 181:-0.003248 182:0.009713 183:-0.074748 184:-0.023909 185:-0.071644 186:0.010477 187:-0.04141 188:0.0089 189:-0.056854 190:-0.043078 191:0.011565 192:0.071894 193:0.029558 194:0.012147 195:0.010958 196:-0.00927 197:-0.029816 198:0.048185 199:0.00763 200:0.048826 201:-0.000703 202:0.038224 203:0.012539 204:-0.026472 205:0.036136 206:-0.026617 207:0.016796 208:0.045622 209:0.018552 210:-0.003297 211:0.023796 212:-0.018688 213:-0.022537 214:0.04082 215:-0.066014 216:-0.042445 217:0.059164 218:0.010169 219:-0.03124 220:0.067855 221:0.027839 222:0.023345 223:0.012474 224:0.025705 225:-0.066443 226:0.066254 227:0.058519 228:-0.078219 229:-0.023136 230:-0.02861 231:0.009045 232:0.00487 233:-0.008213 234:-0.013324 235:0.032783 236:-0.006636 237:0.007284 238:-0.011498 239:0.056244 240:-0.010746 241:0.078496 242:0.006923 243:0.078405 244:-0.06559 245:0.002092 246:-0.031383 247:0.042654 248:-0.080174 249:0.101152 250:-0.066701 251:0.034013 252:0.012286 253:0.015688 254:0.002882 255:0.013512 256:-0.061092 257:-0.012192 258:0.006189 259:0.027334 260:-0.01542 261:-0.094703 262:-0.049616 263:-0.025927 264:-0.006314 265:0.031554 266:0.023187 267:-0.059963 268:-0.006154 269:-0.018516 270:-0.016698 271:-0.064451 272:0.034776 273:0.024518 274:0.110935 275:0.010758 276:-0.04971 277:-0.046623 278:-0.048959 279:0.04654 280:-0.11837 281:-0.018278 282:-0.027904 283:-0.024925 284:0.029249 285:0.073089 286:0.06038 287:0.043129 288:0.004706 289:-0.054014 290:0.097149 291:0.048051 292:-0.026955 293:0.048386 294:0.004359 295:0.014045 296:0.016512 297:0.028076 298:-0.017566 299:-0.03047 300:-0.000714 301:0.02912 302:0.005851 303:-0.07941 304:0.045208 305:0.005964 306:-0.056617 307:0.074147 308:0.042957 309:-0.020848 310:0.02046 311:-0.005444 312:0.027779 313:0.050077 314:0.035998 315:-0.040141 316:0.032535 317:-0.046451 318:-0.006453 319:0.08487 320:-0.072475 321:-0.060484 322:-0.011985 323:-0.022559 324:0.045151 325:-0.029443 326:0.00527 327:0.054029 328:0.018139 329:-0.004877 330:-0.012593 331:-0.086077 332:-0.059293 333:0.002383 334:0.061042 335:0.025142 336:0.018061 337:-0.020819 338:-0.007411 339:0.028204 340:-0.024169 341:-0.056454 342:0.058115 343:0.017856 344:0.067405 345:-0.024517 346:0.018872 347:0.00815 348:-0.006808 349:0.096673 350:0.061436 351:-0.026556 352:0.005073 353:0.079196 354:0.060239 355:0.047548 356:-0.082164 357:-0.066474 358:-0.036661 359:0.032183 360:0.026801 361:-0.054533 362:0.010171 363:-0.004013 364:-0.035024 365:-0.005312 366:0.041959 367:0.071222 368:0.016021 369:-0.086048 370:0.072549 371:-0.035206 372:0.082645 373:0.036576 374:-0.009136 375:0.010595 376:0.080941 377:-0.024281 378:0.018968 379:-0.048351 380:0.019568 381:-0.022806 382:-0.006383 383:-0.024266 384:-0.061046 385:-0.068431 386:-0.020394 387:-0.003878 388:-0.018523 389:-0.068019 390:0.032242 391:-0.027686 392:-0.015739 393:-0.057144 394:-0.032257 395:0.053161 396:-0.051624 397:0.007907 398:-0.043801 399:0.008413 400:-0.018453 401:0.01514 402:0.075196 403:-0.044386 404:-0.017272 405:0.039116 406:0.070139 407:0.03513 408:0.037684 409:-0.021376 410:0.054389 411:0.01598 412:0.097542 413:-0.015513 414:0.009224 415:0.006584 416:-0.081813 417:-0.033251 418:-0.012056 419:-0.028272 420:0.00163 421:0.013619 422:-0.091786 423:-0.077013 424:-0.043175 425:0.042216 426:-0.024398 427:-0.049757 428:0.063509 429:-0.005058 430:0.023664 431:0.005683 432:0.008522 433:-0.02893 434:3.3e-05 435:0.069027 436:-0.021545 437:-0.012538 438:-0.028804 439:-0.011885 440:-0.024169 441:0.06758 442:-0.053833 443:-0.017926 444:-0.037476 445:-0.036545 446:0.012954 447:0.000225 448:0.048184 449:0.051744 450:-0.039012 451:-0.062657 452:0.005397 453:0.043185 454:-0.015426 455:0.068634 456:0.045021 457:0.022557 458:-0.025828 459:-0.008625 460:-0.019345 461:-0.048842 462:0.109564 463:-0.016855 464:-0.020595 465:-0.006653 466:-0.001481 467:0.007219 468:-0.103309 469:0.058625 470:-0.012417 471:-0.027335 472:-0.033728 473:-0.051161 474:-0.021598 475:-0.041621 476:0.016987 477:0.011205 478:0.04763 479:-0.051721 480:0.060039 481:-0.052421 482:-0.108362 483:0.018974 484:-0.049446 485:0.016302 486:-0.000378 487:-0.019179 488:0.027101 489:0.05462 490:-0.055395 491:-0.02155 492:0.063104 493:0.049765 494:-0.031007 495:-0.089832 496:-0.013007 497:-0.08118 498:0.021031 499:-0.013949 500:0.004922 501:-0.007787 502:-0.070057 503:-0.063896 504:-0.045627 505:-0.022458 506:0.054102 507:0.032515 508:0.055046 509:-0.013569 510:0.052 511:0.073587 
0 0 0 0.1274832713350837 0:0.00114 1:-0.053355 2:0.0114 3:0.019171 4:-0.039518 5:0.039339 6:-0.006967 7:-0.002591 8:-0.045592 9:-0.049411 10:0.059578 11:0.017102 12:0.042312 13:0.037441 14:0.073988 15:0.009009 16:-0.068074 17:0.028082 18:-0.050861 19:0.057162 20:-0.000351 21:-0.06505 22:-0.015445 23:-0.017707 24:-0.001026 25:0.02611 26:0.019055 27:0.047754 28:0.005188 29:-0.017677 30:0.06374 31:0.001555 32:-0.009211 33:0.017135 34:-0.124633 35:0.022854 36:0.007311 37:0.109704 38:0.049346 39:-0.050276 40:-0.001473 41:-0.038909 42:-0.024857 43:-0.026072 44:0.118498 45:-0.000993 46:0.022078 47:-0.066099 48:0.004086 49:-0.027442 50:0.035407 51:-0.006405 52:-0.041106 53:0.01783 54:-0.091122 55:0.013874 56:-0.048813 57:0.009691 58:-0.033417 59:0.074232 60:-0.029232 61:-0.040921 62:-0.053631 63:0.039231 64:-0.04265 65:0.057147 66:-0.014144 67:-0.035725 68:-0.048219 69:-0.008223 70:-0.011916 71:-0.012134 72:0.06144 73:-0.012235 74:-0.044298 75:0.007334 76:0.007669 77:-0.005988 78:-0.04368 79:-0.034964 80:0.023717 81:0.075956 82:0.08521 83:-0.036951 84:0.055112 85:0.00172 86:-0.002699 87:0.028965 88:-0.014014 89:0.086338 90:-0.053906 91:0.018668 92:-0.026379 93:0.046467 94:0.015196 95:-0.040378 96:-0.019685 97:-0.026198 98:0.001232 99:-0.054484 100:-0.032783 101:0.043152 102:0.055957 103:0.019185 104:0.066285 105:-0.01385 106:-0.034432 107:-0.008601 108:-0.063384 109:-0.034797 110:-0.058113 111:0.062607 112:-0.029124 113:0.04291 114:0.110702 115:0.055633 116:-0.025805 117:-0.029047 118:0.01032 119:-0.041892 120:0.031194 121:0.028616 122:0.03615 123:-0.031562 124:0.00305 125:-0.083192 126:-0.077934 127:0.005666 128:0.02745 129:-0.092428 130:0.066042 131:0.072633 132:-0.038134 133:0.050605 134:0.0118 135:-0.044194 136:0.055683 137:-0.04326 138:-0.092125 139:-0.031292 140:0.057776 141:-0.000983 142:-0.050185 143:0.038607 144:-0.021224 145:-0.03604 146:0.001632 147:0.00775 148:-0.023648 149:-0.005206 150:-0.058511 151:0.003564 152:-0.00927 153:-0.026351 154:0.05164 155:0.005323 156:0.008995 157:-0.013081 158:0.000603 159:0.006899 160:0.009287 161:0.038038 162:0.041172 163:-0.083377 164:0.036734 165:-0.04228 166:-0.048002 167:-0.047795 168:0.046599 169:0.029086 170:-0.058473 171:0.073581 172:-0.038708 173:-0.036266 174:0.025089 175:-0.033356 176:0.026483 177:-0.077248 178:0.001962 179:0.045194 180:0.050021 181:0.047783 182:-0.01931 183:-0.027814 184:0.001968 185:-0.07398 186:-0.002665 187:-0.009138 188:0.027965 189:-0.009986 190:-0.034111 191:-0.014691 192:0.028609 193:0.016528 194:0.029277 195:0.035466 196:0.013737 197:0.002663 198:0.006752 199:-0.015857 200:0.069094 201:-0.042203 202:0.016945 203:0.056629 204:-0.032207 205:0.058147 206:-0.023344 207:0.033851 208:0.022675 209:-0.011402 210:0.018898 211:-0.00238 212:-0.024438 213:-0.007983 214:0.048765 215:-0.086523 216:-0.061353 217:0.08729 218:0.026219 219:-0.035704 220:-0.025481 221:0.032826 222:-0.015866 223:-0.061568 224:-0.005095 225:-0.017388 226:0.068211 227:0.132098 228:-0.074074 229:0.002565 230:-0.060851 231:-0.01506 232:-0.018802 233:0.016934 234:-0.018866 235:0.034113 236:-0.031229 237:-0.036171 238:-0.014607 239:7.7e-05 240:-0.043629 241:0.084338 242:0.037487 243:0.051491 244:0.004054 245:0.009937 246:-0.055266 247:0.024842 248:-0.089836 249:0.070146 250:-0.030568 251:0.052891 252:0.013393 253:-0.012234 254:0.021555 255:0.018167 256:-0.006444 257:-0.001353 258:-0.006259 259:0.034249 260:0.015035 261:-0.077005 262:-0.079251 263:0.046518 264:-0.002513 265:0.02395 266:0.06519 267:-0.050301 268:0.018482 269:0.032391 270:-0.099311 271:-0.045607 272:0.039962 273:0.005645 274:0.087066 275:-0.001606 276:-0.00066 277:-0.033269 278:-0.030932 279:-0.001869 280:-0.14248 281:0.022174 282:-0.04546 283:-0.031903 284:0.028064 285:0.04901 286:0.064367 287:0.019891 288:-0.010859 289:-0.104774 290:0.079782 291:0.018859 292:-0.004503 293:0.001376 294:-0.004976 295:0.019634 296:0.053976 297:0.043205 298:0.007532 299:-0.002155 300:0.006366 301:-0.026016 302:0.006538 303:-0.062914 304:-0.001824 305:0.007906 306:-0.096376 307:0.041352 308:0.029399 309:-0.02068 310:0.03192 311:0.013445 312:0.032334 313:0.030098 314:-0.028731 315:0.007244 316:-0.017905 317:-0.024108 318:-0.009552 319:0.099244 320:-0.033893 321:-0.039668 322:-0.065774 323:0.011514 324:0.058423 325:-0.033327 326:0.007559 327:0.030656 328:0.015839 329:-0.035355 330:0.00823 331:-0.071853 332:0.015453 333:-0.013 334:0.047196 335:-0.025478 336:0.04791 337:-0.026561 338:-0.001385 339:0.011777 340:-0.026095 341:-0.052811 342:0.035728 343:0.012606 344:0.049314 345:-0.013906 346:0.04064 347:0.032337 348:-0.00565 349:0.050831 350:0.07681 351:0.011825 352:-0.007995 353:0.003354 354:0.054492 355:0.077647 356:-0.059329 357:-0.043882 358:-0.058804 359:0.034601 360:0.028651 361:-0.05527 362:0.045612 363:-0.02834 364:-0.019339 365:-0.078888 366:0.028122 367:0.001184 368:0.0232 369:-0.085405 370:0.047904 371:-0.05206 372:0.057064 373:-0.012844 374:0.053836 375:0.01083 376:0.088296 377:-0.000795 378:-0.017484 379:-0.031158 380:-0.04449 381:-0.036269 382:-0.00552 383:-0.022964 384:-0.053 385:-0.125095 386:-0.024657 387:-0.026923 388:-0.027545 389:-0.065768 390:0.005061 391:-0.017971 392:0.000681 393:-0.070793 394:0.011225 395:0.059395 396:0.019175 397:0.030049 398:-0.034117 399:0.035353 400:-0.049409 401:0.031512 402:0.053313 403:-0.065604 404:-0.051855 405:0.032837 406:0.058943 407:-0.013398 408:0.004881 409:0.015564 410:0.039011 411:-0.008677 412:0.056794 413:-0.027746 414:0.002968 415:0.047238 416:-0.062389 417:0.008294 418:-0.011621 419:-0.080179 420:0.027577 421:0.003991 422:-0.074425 423:-0.044816 424:-0.103087 425:0.003941 426:-0.065702 427:-0.046531 428:0.059214 429:-0.031325 430:0.021609 431:0.008186 432:0.003589 433:0.010438 434:-0.026296 435:0.051744 436:-0.019683 437:0.000949 438:0.009873 439:-0.029606 440:-0.012488 441:0.09097 442:-0.028517 443:-0.030675 444:-0.052808 445:0.010006 446:0.025276 447:-0.036054 448:0.06655 449:0.066344 450:-0.027774 451:-0.038484 452:-0.01118 453:0.032044 454:0.018794 455:0.079662 456:0.063998 457:0.010811 458:-0.014481 459:-0.004752 460:-0.040145 461:-0.091328 462:0.054097 463:-0.048442 464:0.035427 465:0.010512 466:-0.083546 467:0.016385 468:-0.033265 469:0.067981 470:-0.029393 471:-0.03495 472:-0.032742 473:-0.028773 474:-0.035303 475:-0.041678 476:0.054627 477:0.034233 478:0.00217 479:-0.01782 480:0.059137 481:-0.074701 482:-0.091531 483:-0.007606 484:-0.000448 485:0.036198 486:0.016935 487:-0.043956 488:0.056245 489:0.055157 490:-0.09794 491:0.034052 492:0.00084 493:0.02469 494:0.000553 495:-0.041043 496:-0.046591 497:-0.064479 498:0.029621 499:-0.004773 500:-0.007021 501:-0.048192 502:-0.070345 503:-0.074686 504:0.013856 505:-0.007217 506:0.088264 507:0.018798 508:0.041035 509:0.047005 510:0.08413 511:0.010775 
0.23580927183169 0.51467679296712 0.4866526787191388 0 0:0.026794 1:-0.01244 2:0.0486 3:0.01404 4:-0.054205 5:0.043173 6:-0.037444 7:-0.001608 8:0.000392 9:-0.034639 10:0.118697 11:-0.011639 12:0.080915 13:0.071698 14:0.035148 15:0.008436 16:-0.041714 17:0.034011 18:-0.095663 19:0.063737 20:-0.005677 21:-0.049485 22:-0.016822 23:-0.034904 24:-0.070436 25:-0.033236 26:-0.030732 27:0.043792 28:-0.008069 29:-0.039102 30:0.049264 31:0.004484 32:-0.026045 33:0.024262 34:-0.084626 35:0.025334 36:0.022074 37:0.072497 38:0.058784 39:-0.048757 40:-0.007505 41:0.000744 42:0.017852 43:0.004033 44:0.10713 45:0.021542 46:0.020841 47:-0.065657 48:-0.005595 49:-0.034426 50:-0.001015 51:-0.005446 52:-0.030189 53:0.063597 54:-0.041648 55:0.022755 56:-0.026609 57:-0.076146 58:0.005314 59:0.039957 60:0.046908 61:-0.02881 62:-0.030125 63:0.05263 64:-0.020512 65:0.058694 66:0.004639 67:-0.022972 68:0.027941 69:0.041034 70:-0.041787 71:-0.025726 72:0.029553 73:-0.004537 74:-0.013258 75:-0.020788 76:-0.0616 77:-0.001849 78:-0.046273 79:-0.063665 80:0.04175 81:0.088708 82:0.010345 83:-0.008978 84:0.024108 85:0.033941 86:0.016975 87:-0.000941 88:-0.013744 89:0.048952 90:-0.044369 91:0.022448 92:-0.024237 93:0.038053 94:-0.032979 95:0.021064 96:-0.023029 97:-0.023516 98:0.042082 99:-0.092863 100:-0.01746 101:0.048986 102:0.007681 103:-0.018413 104:0.021815 105:0.008115 106:-0.066963 107:-0.08428 108:-0.14509 109:-0.009831 110:-0.069924 111:0.093163 112:-0.036587 113:0.051358 114:0.093815 115:0.059136 116:-0.000101 117:-0.01569 118:-0.026446 119:-0.068912 120:-0.024097 121:0.039384 122:0.012377 123:-0.037718 124:0.0199 125:-0.055179 126:-0.064611 127:-0.011329 128:0.010448 129:-0.031064 130:0.008689 131:0.061327 132:-0.046871 133:0.027709 134:0.06297 135:-0.064975 136:-0.010974 137:-0.084284 138:-0.054392 139:-0.005419 140:0.038985 141:0.037793 142:0.006989 143:0.023843 144:-0.038396 145:-0.008844 146:0.015646 147:0.058585 148:-0.064658 149:0.034019 150:-0.017749 151:-0.068015 152:-0.050265 153:-0.005309 154:0.046217 155:0.022893 156:-0.052813 157:-0.015054 158:0.004804 159:-0.073826 160:0.033335 161:0.044316 162:0.03051 163:-0.054214 164:0.020055 165:-0.05296 166:-0.054356 167:-0.049977 168:0.096604 169:0.02788 170:-0.05013 171:0.081799 172:-0.016201 173:-0.003312 174:0.017252 175:-0.017997 176:0.035903 177:0.019566 178:0.001375 179:0.004091 180:0.030761 181:-0.006712 182:-0.02138 183:-0.091666 184:0.008466 185:-0.016736 186:0.011884 187:0.007449 188:0.025512 189:-0.065716 190:-0.023535 191:0.020867 192:0.042367 193:0.030575 194:-0.002021 195:-0.00762 196:0.003044 197:-0.054371 198:0.035569 199:-0.032155 200:0.059145 201:0.007325 202:0.054315 203:0.014776 204:-0.02664 205:0.074408 206:-0.059884 207:0.015923 208:0.057566 209:0.017206 210:0.003138 211:0.035269 212:-0.015951 213:-0.015561 214:0.034229 215:-0.065366 216:-0.035487 217:0.042397 218:-0.019165 219:-0.015135 220:0.021445 221:0.031751 222:0.000774 223:0.004979 224:0.042702 225:-0.026936 226:0.06131 227:0.091023 228:-0.066093 229:-0.018674 230:-0.021706 231:-0.019416 232:0.009414 233:-0.022807 234:-0.004275 235:0.03937 236:-0.023133 237:-0.009502 238:0.033135 239:0.063371 240:0.033227 241:0.118045 242:0.024437 243:0.047245 244:-0.099751 245:-0.025769 246:-0.030064 247:0.021047 248:-0.091549 249:0.07155 250:-0.068686 251:0.013189 252:-0.001035 253:0.014857 254:0.049486 255:0.007803 256:-0.037869 257:9.7e-05 258:-0.017893 259:0.035006 260:0.011512 261:-0.114468 262:-0.017114 263:-0.013256 264:-0.032236 265:0.020346 266:0.044044 267:-0.037226 268:0.004009 269:-0.0341 270:-0.007826 271:-0.043036 272:0.080341 273:0.031917 274:0.0982 275:0.041447 276:0.004395 277:-0.036842 278:-0.007643 279:-0.018963 280:-0.123959 281:0.019798 282:-0.028075 283:-0.022441 284:0.019187 285:0.074037 286:0.059744 287:0.036817 288:-0.029874 289:-0.048099 290:0.056965 291:0.067765 292:-0.023591 293:0.054687 294:0.021909 295:0.018577 296:0.00372 297:0.01584 298:0.009245 299:-0.068147 300:0.019684 301:0.043277 302:0.016233 303:-0.075881 304:0.035321 305:0.011681 306:-0.020563 307:0.010441 308:0.023599 309:0.011217 310:0.03462 311:-0.026076 312:0.057365 313:0.042661 314:0.038651 315:-0.058764 316:-0.027058 317:0.008082 318:-0.013914 319:0.105702 320:-0.090849 321:-0.057877 322:-0.013174 323:0.013037 324:0.03782 325:-0.027911 326:0.007624 327:0.043149 328:0.025071 329:-0.001488 330:0.006622 331:-0.113337 332:-0.055762 333:-0.037607 334:0.031839 335:0.013985 336:0.051173 337:-0.060485 338:0.047188 339:0.034074 340:-0.001766 341:-0.089606 342:0.041983 343:-0.001092 344:0.037917 345:-0.027007 346:-0.01449 347:0.012491 348:-0.026988 349:0.089705 350:0.07064 351:-0.012278 352:0.031288 353:0.034989 354:0.042457 355:0.054465 356:-0.033161 357:-0.045886 358:-0.076189 359:0.023862 360:0.003918 361:-0.048976 362:0.002057 363:-0.004894 364:-0.009053 365:-0.027426 366:0.024187 367:0.081534 368:0.00466 369:-0.059296 370:0.041764 371:-0.031171 372:0.067243 373:0.011348 374:0.009732 375:0.042901 376:0.08548 377:-0.063095 378:-0.022257 379:-0.028116 380:0.005411 381:-0.046646 382:0.022082 383:-0.049658 384:-0.050364 385:-0.067856 386:-0.003439 387:-0.006648 388:-0.022891 389:-0.067976 390:0.043571 391:-0.014725 392:-0.047419 393:0.000373 394:-0.047499 395:0.081044 396:0.012585 397:0.027496 398:-0.04539 399:0.006599 400:-0.047472 401:0.032585 402:0.08682 403:-0.037077 404:-0.001871 405:0.020767 406:0.026678 407:0.027503 408:0.015239 409:0.000166 410:0.036167 411:0.031093 412:0.062308 413:0.008404 414:-0.013905 415:0.037717 416:-0.077726 417:-0.01023 418:0.034393 419:-0.040064 420:-0.016964 421:0.007965 422:-0.094073 423:-0.062391 424:-0.048879 425:0.053613 426:-0.03553 427:-0.068961 428:0.037792 429:-0.005151 430:0.002284 431:0.006461 432:0.010156 433:-0.015353 434:0.019313 435:0.077323 436:-0.00692 437:-0.006642 438:0.011901 439:0.000786 440:-0.013087 441:0.063158 442:-0.030268 443:-0.025045 444:-0.025722 445:0.029722 446:0.015052 447:-0.044406 448:0.049606 449:0.043274 450:-0.066665 451:-0.042621 452:0.019281 453:0.017922 454:-0.052462 455:0.049917 456:0.044609 457:0.023652 458:-0.04206 459:-0.020265 460:-0.043988 461:-0.064957 462:0.10882 463:-0.005002 464:-0.061799 465:-0.016909 466:-0.032663 467:0.005682 468:-0.086783 469:0.045563 470:-0.013332 471:-0.03691 472:-0.02588 473:-0.030126 474:-0.023577 475:-0.03961 476:0.020121 477:0.010545 478:0.006514 479:-0.058201 480:0.063844 481:-0.041159 482:-0.09649 483:-0.022858 484:-0.047094 485:0.029891 486:0.009864 487:-0.027301 488:0.045925 489:0.031119 490:-0.088559 491:-0.044732 492:0.034599 493:0.04083 494:-0.01788 495:-0.068198 496:0.009391 497:-0.067513 498:-0.00421 499:0.002763 500:0.008564 501:-0.036075 502:-0.058754 503:-0.069824 504:-0.037353 505:0.021201 506:0.084644 507:0.008692 508:0.084634 509:0.017614 510:0.020123 511:0.069956 
0 0 0.147354149020485 0 0:0.043469 1:-0.003608 2:0.021353 3:0.022668 4:-0.068681 5:0.024039 6:-0.02639 7:0.038661 8:-0.024561 9:-0.040815 10:0.045949 11:-0.008521 12:0.090525 13:0.074709 14:0.081311 15:0.00859 16:-0.047745 17:0.010075 18:-0.042803 19:0.05465 20:-0.041092 21:-0.036374 22:-0.028713 23:-0.047101 24:0.005816 25:-0.04521 26:-0.018198 27:0.009327 28:0.021482 29:-0.041601 30:0.027802 31:-0.000247 32:-0.040632 33:0.023479 34:-0.110238 35:0.030697 36:0.008954 37:0.10655 38:0.059102 39:-0.039662 40:0.013481 41:0.017169 42:-0.00607 43:-0.004958 44:0.105412 45:0.047893 46:0.026318 47:-0.065857 48:-0.01127 49:-0.036772 50:0.032292 51:-0.016878 52:-0.065306 53:-0.016632 54:-0.13361 55:0.011908 56:-0.019099 57:-0.068363 58:-0.028904 59:0.003751 60:-0.024419 61:-0.026058 62:-0.032838 63:0.029892 64:-0.052403 65:0.038216 66:-0.010351 67:-0.016263 68:-0.018498 69:0.003635 70:0.008775 71:0.013897 72:-0.006231 73:-0.031381 74:0.006456 75:-0.053728 76:-0.043793 77:0.006965 78:-0.050691 79:-0.092513 80:0.062404 81:0.076761 82:0.002501 83:-0.059347 84:0.00315 85:0.038076 86:0.021572 87:-0.009769 88:-0.039005 89:0.094127 90:-0.025283 91:0.009112 92:-0.049279 93:-0.026541 94:0.007973 95:-0.041721 96:-0.008762 97:-0.05627 98:-0.047323 99:-0.086169 100:0.006582 101:0.058881 102:0.042465 103:-0.011912 104:-0.002443 105:-0.009136 106:-0.04207 107:-0.028563 108:-0.117781 109:0.011016 110:-0.063184 111:0.027708 112:0.004965 113:0.070452 114:0.094093 115:0.032072 116:-0.010241 117:0.015462 118:-0.000824 119:-0.044581 120:-0.017961 121:0.051084 122:0.037036 123:-0.086102 124:0.009238 125:-0.069084 126:-0.036267 127:0.034088 128:-0.00334 129:-0.059768 130:0.053187 131:0.021335 132:-0.069224 133:0.041833 134:0.070692 135:-0.027678 136:0.027599 137:-0.033978 138:-0.053508 139:0.008954 140:0.034557 141:0.045761 142:0.003845 143:0.015172 144:0.021001 145:0.015463 146:0.051558 147:0.047308 148:-0.016623 149:-0.011692 150:-0.013285 151:-0.052209 152:-0.030735 153:-0.043564 154:0.074128 155:0.044825 156:0.008735 157:-0.01297 158:0.039446 159:-0.001792 160:-0.010373 161:0.030428 162:0.021255 163:-0.05333 164:0.001435 165:-0.047676 166:-0.057714 167:-0.062788 168:0.045861 169:0.004489 170:-0.050019 171:0.093566 172:0.025995 173:0.013111 174:0.058732 175:-0.020334 176:0.04864 177:-0.060388 178:0.004933 179:0.045308 180:0.035386 181:-0.011861 182:-0.029114 183:-0.052739 184:0.010864 185:-0.011447 186:0.037531 187:0.015588 188:0.041941 189:-0.056937 190:-0.00463 191:-0.009427 192:0.061003 193:0.056324 194:0.057697 195:0.002165 196:-0.030727 197:-0.058728 198:0.021853 199:-0.01376 200:0.028234 201:-0.046167 202:0.034052 203:0.056411 204:-0.013082 205:0.070253 206:-0.018595 207:0.030768 208:0.069516 209:-0.012274 210:-0.025993 211:0.023372 212:-0.03853 213:-0.021574 214:0.07633 215:-0.072496 216:-0.024803 217:0.004169 218:0.05553 219:-0.005032 220:0.03832 221:0.048518 222:-0.070456 223:-0.006762 224:0.035193 225:-0.002008 226:0.053474 227:0.076117 228:-0.082681 229:0.021959 230:-0.072091 231:0.000245 232:0.048014 233:-0.014584 234:-0.046702 235:0.054676 236:0.010436 237:-0.049626 238:0.039168 239:0.039032 240:-0.014957 241:0.075337 242:0.005588 243:0.002719 244:-0.062486 245:-0.023151 246:-0.049545 247:-0.000298 248:-0.069812 249:0.097689 250:-0.05175 251:0.022411 252:-0.049182 253:0.00306 254:0.010363 255:0.030727 256:0.022125 257:-0.032952 258:-0.051963 259:0.037771 260:-0.039933 261:-0.061053 262:-0.058687 263:-0.024097 264:-0.005498 265:0.037838 266:0.036456 267:-0.095026 268:0.006083 269:0.011154 270:-0.057318 271:-0.012574 272:0.068726 273:0.010394 274:0.024141 275:-0.008057 276:-0.019703 277:-0.075289 278:0.028976 279:-0.003819 280:-0.109832 281:0.012153 282:0.027174 283:-0.028336 284:0.024923 285:0.078464 286:0.064668 287:0.012864 288:-0.017612 289:-0.065725 290:0.044863 291:0.037425 292:-0.002953 293:0.043439 294:-0.006346 295:-0.052315 296:0.00723 297:0.059972 298:0.012267 299:-0.039699 300:-0.014302 301:-0.014919 302:-0.029128 303:-0.089331 304:0.010519 305:0.00513 306:-0.052416 307:0.014117 308:0.03663 309:0.055121 310:0.031129 311:0.001666 312:-0.008811 313:0.045859 314:0.001644 315:-0.100066 316:0.011204 317:-0.033808 318:-0.033258 319:0.085004 320:-0.022329 321:-0.041978 322:-0.054489 323:-0.024469 324:0.058734 325:-0.008713 326:0.01376 327:0.030189 328:0.02932 329:-0.038822 330:-0.029345 331:-0.090288 332:-0.008505 333:-0.053815 334:0.001527 335:0.014448 336:0.023127 337:-0.051754 338:0.066676 339:0.027074 340:-0.058155 341:-0.041738 342:0.041119 343:0.050518 344:0.032549 345:0.016746 346:0.025735 347:-0.002048 348:-0.034737 349:0.081674 350:0.049235 351:0.013146 352:0.00284 353:0.038863 354:0.024847 355:-0.003793 356:-0.04131 357:-0.017015 358:-0.055664 359:-0.022196 360:0.074758 361:-0.083048 362:0.004428 363:0.028574 364:-0.013361 365:-0.038681 366:0.053584 367:0.038787 368:0.017141 369:-0.04963 370:0.010647 371:-0.053328 372:0.067677 373:-0.019758 374:0.028098 375:-0.014571 376:0.063311 377:-0.048049 378:-0.033819 379:-0.03975 380:-0.019988 381:-0.075807 382:-0.000175 383:-0.031758 384:-0.056344 385:-0.062629 386:-0.053603 387:0.025224 388:-0.009931 389:-0.105312 390:0.051879 391:-0.014044 392:-0.037054 393:-0.035094 394:-0.038425 395:0.054921 396:0.013352 397:0.007033 398:-0.067068 399:0.060764 400:-0.04369 401:0.046704 402:0.043367 403:-0.004652 404:-0.001791 405:-0.00203 406:0.014961 407:0.047396 408:0.0082 409:-0.028207 410:-0.002359 411:0.005735 412:0.028744 413:0.027668 414:0.030853 415:0.021421 416:-0.073315 417:0.004396 418:0.036907 419:-0.075515 420:-0.062234 421:0.018921 422:-0.074257 423:-0.056257 424:-0.071016 425:-0.00094 426:-0.022751 427:-0.07991 428:0.007633 429:0.007148 430:0.019026 431:-0.014767 432:-0.003096 433:-0.012682 434:0.016223 435:0.08708 436:-0.017393 437:-0.028843 438:0.02029 439:-0.040629 440:0.016457 441:0.048221 442:0.031412 443:-0.022588 444:-0.032459 445:-0.013497 446:0.040803 447:-0.054254 448:0.056894 449:0.053023 450:-0.086976 451:-0.028339 452:-0.02186 453:0.034912 454:0.003022 455:0.072204 456:0.096891 457:0.022897 458:-0.050746 459:-0.022361 460:-0.029306 461:-0.074952 462:0.095188 463:-0.040112 464:-0.050949 465:0.026578 466:-0.040228 467:0.061606 468:-0.033321 469:0.077557 470:0.025767 471:-0.0427 472:0.010392 473:-0.015425 474:0.000109 475:-0.066659 476:0.023841 477:0.025107 478:0.015074 479:-0.009789 480:0.028979 481:-0.049078 482:-0.057755 483:-0.025313 484:-0.010883 485:0.051279 486:0.019087 487:-0.040721 488:0.076759 489:0.099042 490:-0.074812 491:-0.056278 492:0.020268 493:-0.028513 494:-0.053723 495:-0.073032 496:0.004527 497:-0.067028 498:0.042025 499:0.008354 500:0.044237 501:-0.06999 502:-0.027856 503:-0.059174 504:-0.039508 505:0.047717 506:0.061882 507:0.011208 508:0.035021 509:-0.004684 510:0.006378 511:0.064129 
1 0 0 0.5566743338715032 0:0.068599 1:-0.035928 2:0.041076 3:0.000241 4:-0.072533 5:0.01516 6:-0.051514 7:-0.012089 8:-0.021126 9:-0.047931 10:0.083727 11:-0.065359 12:0.052437 13:0.024019 14:0.064256 15:0.021865 16:-0.016215 17:0.085096 18:-0.061007 19:0.09396 20:0.014062 21:-0.063557 22:-0.024621 23:-0.028489 24:-0.040305 25:-0.009762 26:-0.024406 27:0.029315 28:-0.040054 29:-0.008759 30:0.0718 31:0.015344 32:-0.04307 33:0.089566 34:-0.071462 35:0.000248 36:0.019528 37:0.064551 38:0.052203 39:-0.023704 40:0.011527 41:-0.006437 42:-0.001951 43:0.028123 44:0.087014 45:0.021333 46:0.006118 47:-0.083772 48:-0.014595 49:-0.028772 50:0.039823 51:0.019723 52:-0.045805 53:0.060715 54:-0.079901 55:-0.028994 56:-0.023912 57:-0.087237 58:-0.025641 59:0.058975 60:-0.003676 61:-0.002519 62:-0.050015 63:0.03295 64:-0.014049 65:0.027321 66:0.01182 67:-0.006749 68:0.012122 69:0.013861 70:-0.004653 71:-0.023035 72:-0.004739 73:-0.036005 74:-0.009149 75:-0.017924 76:-0.041574 77:0.025717 78:-0.03878 79:-0.088209 80:0.024211 81:0.063136 82:0.02571 83:-0.019797 84:0.009097 85:0.050174 86:0.027763 87:0.031907 88:-0.011881 89:0.09434 90:-0.064077 91:-0.00868 92:-0.062635 93:0.051664 94:-0.003052 95:-0.027004 96:-0.004855 97:-0.038167 98:-0.009827 99:-0.074569 100:-0.029504 101:0.074747 102:0.004524 103:0.013067 104:0.039992 105:-0.007132 106:-0.016165 107:-0.042928 108:-0.106605 109:0.016063 110:-0.072167 111:0.023935 112:-0.018215 113:0.04375 114:0.056523 115:0.067909 116:-0.032082 117:-0.018145 118:-0.014515 119:-0.007533 120:0.019813 121:0.031957 122:-0.005588 123:0.000366 124:0.007275 125:-0.028649 126:-0.092553 127:0.023217 128:0.023082 129:-0.055165 130:0.035583 131:0.05344 132:-0.07194 133:0.024865 134:0.115247 135:-0.035353 136:0.005235 137:-0.122463 138:-0.094833 139:-0.012944 140:0.050086 141:0.008185 142:-0.033175 143:0.016867 144:-0.022526 145:-0.050782 146:0.040958 147:0.034755 148:-0.023707 149:0.009464 150:-0.039812 151:-0.061049 152:0.013289 153:-0.006033 154:0.030829 155:0.002802 156:-0.000662 157:-0.014025 158:0.027264 159:-0.056266 160:-0.020429 161:0.052798 162:-0.035053 163:-0.030088 164:0.050538 165:-0.021505 166:-0.086291 167:-0.025244 168:0.075322 169:-0.010351 170:-0.028075 171:0.10473 172:-0.056697 173:0.031637 174:0.023516 175:-0.010645 176:0.015014 177:0.001104 178:-0.010096 179:0.017228 180:0.029263 181:0.055346 182:0.023141 183:-0.033753 184:0.041113 185:-0.006534 186:0.019816 187:0.00339 188:0.042373 189:-0.054526 190:0.008968 191:-0.019284 192:0.030212 193:0.047128 194:0.010617 195:-0.025248 196:-0.043814 197:-0.009403 198:0.038606 199:0.016808 200:0.096813 201:-0.010926 202:0.032986 203:0.076203 204:-0.022928 205:0.057243 206:-0.054259 207:0.060266 208:0.023893 209:0.0247 210:0.001761 211:0.00714 212:-0.008759 213:0.006302 214:0.018043 215:-0.078929 216:0.011195 217:0.055234 218:0.057579 219:-0.003052 220:0.057063 221:0.003711 222:-0.02526 223:0.004218 224:0.016383 225:-0.018855 226:0.066516 227:0.082981 228:-0.083021 229:-0.007393 230:-0.018415 231:-0.011705 232:0.034023 233:0.00389 234:0.041208 235:0.022764 236:-0.047985 237:-0.0232 238:0.04457 239:0.03668 240:0.004653 241:0.086382 242:0.040687 243:0.063152 244:-0.049161 245:0.010239 246:-0.005454 247:0.073143 248:-0.055032 249:0.073434 250:-0.053334 251:0.00554 252:0.039836 253:-0.048984 254:0.005326 255:0.004008 256:0.03866 257:-0.039618 258:-0.037068 259:0.011128 260:-0.021588 261:-0.115971 262:-0.051835 263:0.003113 264:-0.020638 265:0.018861 266:0.037504 267:-0.061189 268:-0.00673 269:0.00225 270:-0.043423 271:-0.045795 272:0.0764 273:-0.008157 274:0.075667 275:0.039868 276:-0.034046 277:-0.071208 278:-0.04738 279:-0.021133 280:-0.149963 281:-0.021097 282:0.0226 283:0.0241 284:0.021396 285:0.044835 286:0.057801 287:-0.017135 288:-0.020432 289:-0.024542 290:0.04785 291:0.050356 292:-0.01552 293:0.006202 294:0.038342 295:-0.008135 296:0.018459 297:0.035408 298:0.00315 299:-0.055591 300:-0.005862 301:-0.031959 302:-0.030565 303:-0.047271 304:0.024545 305:0.027185 306:-0.051446 307:0.036454 308:0.057163 309:0.008263 310:0.018748 311:-0.001853 312:0.021373 313:0.011727 314:0.012054 315:-0.075355 316:-0.022299 317:-0.020363 318:0.057366 319:0.068314 320:-0.073707 321:-0.064276 322:-0.00158 323:-0.005356 324:-0.000565 325:-0.009484 326:0.002541 327:0.048161 328:0.035049 329:-0.003223 330:-0.047453 331:-0.095787 332:-0.035314 333:-0.030428 334:0.086686 335:0.045825 336:0.063434 337:-0.057458 338:0.011675 339:0.009376 340:-0.073559 341:-0.065578 342:0.025779 343:-0.002106 344:0.015089 345:0.019152 346:0.049812 347:0.026812 348:-0.031752 349:0.081564 350:0.064121 351:0.0313 352:0.032816 353:0.055362 354:0.090721 355:0.018346 356:-0.065666 357:-0.047099 358:-0.079005 359:0.016759 360:0.034708 361:-0.05245 362:0.017563 363:-0.042271 364:-0.028226 365:-0.04496 366:0.019982 367:0.053316 368:0.023928 369:-0.066701 370:0.015522 371:-0.026631 372:0.053099 373:-0.012881 374:-0.008639 375:0.00528 376:0.088622 377:-0.016992 378:0.006946 379:-0.006388 380:0.031074 381:-0.051366 382:-0.007786 383:-0.026013 384:-0.051533 385:-0.05427 386:-0.023598 387:-0.001611 388:0.01095 389:-0.047486 390:-0.034071 391:0.025171 392:-0.043819 393:0.014481 394:-0.049629 395:0.050124 396:-0.053198 397:0.03748 398:-0.043614 399:-0.019847 400:0.018637 401:-0.004268 402:0.085199 403:-0.048055 404:0.013692 405:-0.025309 406:0.043878 407:0.025317 408:-0.012802 409:-0.039465 410:0.048003 411:0.002982 412:0.077407 413:0.03034 414:-0.028402 415:0.001443 416:-0.067754 417:-0.0607 418:0.056408 419:-0.041332 420:-0.006143 421:0.010998 422:-0.113007 423:-0.031751 424:-0.052875 425:0.020818 426:-0.041036 427:-0.082282 428:0.000709 429:0.000152 430:0.025453 431:-0.034748 432:-0.009733 433:-0.019926 434:0.051734 435:0.109002 436:0.0206 437:0.002234 438:-0.007469 439:-0.018955 440:-0.037857 441:0.073762 442:-0.005865 443:-0.000453 444:0.005836 445:-0.027261 446:0.04229 447:-0.059487 448:0.082614 449:0.064786 450:-0.090486 451:-0.005911 452:0.002167 453:0.047199 454:-0.026707 455:0.058171 456:0.004627 457:0.056198 458:-0.050745 459:0.019825 460:-0.013737 461:-0.062535 462:0.095547 463:-0.029811 464:-0.029714 465:0.031045 466:-0.045194 467:-0.011093 468:-0.025269 469:0.093993 470:0.056926 471:-0.017135 472:-0.069262 473:-0.005301 474:-0.028654 475:-0.059968 476:0.011803 477:-0.00212 478:-0.014344 479:-0.038019 480:0.040245 481:-0.078804 482:-0.041299 483:-0.005157 484:-0.040126 485:0.044049 486:0.035252 487:-0.028418 488:0.066079 489:0.019066 490:-0.080096 491:-0.036577 492:0.034111 493:0.076175 494:-0.034379 495:-0.044194 496:-0.00734 497:-0.034543 498:0.046477 499:0.027436 500:0.010861 501:-0.077405 502:-0.050367 503:-0.037683 504:-0.006914 505:9.2e-05 506:0.059895 507:0.020161 508:0.025571 509:0.013965 510:0.042205 511:0.039143 
1 0 0 0 0:0.010131 1:-0.010348 2:0.029149 3:0.000973 4:-0.031706 5:0.001171 6:-0.069211 7:0.014948 8:-0.039526 9:-0.048545 10:0.031569 11:-0.038808 12:0.02362 13:0.027688 14:0.067177 15:-0.016602 16:-0.088665 17:0.038537 18:-0.06824 19:0.044954 20:0.022703 21:-0.035039 22:-0.011349 23:-0.038512 24:-0.013124 25:0.024808 26:0.04996 27:0.0032 28:0.011179 29:-0.037597 30:0.063641 31:0.000159 32:-0.029852 33:0.092156 34:-0.054433 35:0.042485 36:0.037571 37:0.069574 38:0.007724 39:-0.005478 40:0.035721 41:-0.012198 42:0.007804 43:0.011937 44:0.081613 45:-0.00167 46:-0.021145 47:-0.053362 48:-0.066865 49:-0.032196 50:0.059284 51:0.028147 52:-0.048684 53:-0.012666 54:-0.114737 55:-0.008232 56:-0.042911 57:-0.045161 58:-0.028326 59:0.033605 60:-0.001772 61:-0.005649 62:-0.045968 63:-0.006899 64:-0.020249 65:0.021315 66:-0.018405 67:0.029091 68:-0.031475 69:0.002156 70:0.026635 71:0.001303 72:-0.011194 73:-0.042105 74:0.058799 75:-0.034092 76:-0.030888 77:0.029221 78:-0.071773 79:-0.077422 80:0.047684 81:0.06744 82:0.081318 83:-0.047902 84:-0.019419 85:0.036709 86:0.040064 87:0.042099 88:-0.010463 89:0.118262 90:-0.02282 91:-0.00567 92:-0.053582 93:-0.002128 94:-0.010348 95:-0.041889 96:0.030044 97:-0.0347 98:-0.047445 99:-0.083496 100:0.023364 101:0.04292 102:0.048719 103:0.031881 104:-0.020911 105:0.00328 106:0.013176 107:-0.029521 108:-0.089701 109:-0.010789 110:-0.024248 111:0.051429 112:-0.000413 113:0.083684 114:0.111141 115:0.045169 116:-0.054165 117:0.007179 118:0.02636 119:0.004989 120:0.035816 121:0.048339 122:-0.022316 123:-0.014117 124:-0.0159 125:-0.064589 126:-0.095888 127:0.07336 128:0.034981 129:-0.074787 130:0.06156 131:0.037782 132:-0.034867 133:0.022957 134:0.084036 135:-0.033485 136:0.046697 137:-0.097484 138:-0.146887 139:0.014444 140:0.027057 141:0.027778 142:-0.044269 143:0.048834 144:0.00994 145:-0.039975 146:0.02988 147:0.046701 148:0.012048 149:-0.034015 150:-0.071454 151:-0.020009 152:-0.020967 153:-0.046653 154:0.055887 155:-0.006949 156:0.01897 157:-0.008242 158:0.026217 159:-0.023524 160:0.007206 161:0.033493 162:-0.023699 163:-0.038126 164:0.061607 165:0.015799 166:-0.081445 167:-0.059612 168:0.016001 169:-0.000533 170:-0.015825 171:0.065601 172:-0.048041 173:0.015564 174:0.030688 175:-0.044317 176:0.028582 177:-0.075131 178:-0.076329 179:0.038323 180:0.067984 181:0.039673 182:0.001888 183:-0.016276 184:0.030786 185:0.000731 186:-0.033089 187:-0.014769 188:0.059231 189:-0.022811 190:0.003621 191:-0.010181 192:0.046982 193:0.024599 194:0.02972 195:-0.027418 196:-0.017404 197:0.020588 198:0.005644 199:0.025782 200:0.015212 201:-0.090949 202:-0.010785 203:0.069769 204:-0.035512 205:0.039733 206:-0.00965 207:0.035187 208:0.032452 209:0.009371 210:0.025031 211:-0.001069 212:-2.4e-05 213:0.025543 214:0.051296 215:-0.075983 216:-0.044091 217:0.071553 218:0.061654 219:-0.024233 220:0.010621 221:-0.005736 222:-0.073269 223:-0.033861 224:0.018435 225:0.015672 226:0.034481 227:0.038352 228:-0.058474 229:-0.003389 230:-0.050604 231:0.042644 232:0.021178 233:0.009322 234:0.035216 235:0.041318 236:-0.027683 237:-0.048474 238:0.009717 239:0.019244 240:-0.042878 241:0.074167 242:0.011413 243:0.050371 244:-0.020896 245:0.029362 246:0.018446 247:0.072732 248:-0.047901 249:0.052078 250:-0.041241 251:0.011538 252:0.001997 253:-0.074597 254:0.030483 255:-0.022251 256:0.050074 257:-0.026503 258:-0.021225 259:0.033045 260:0.015094 261:-0.080152 262:-0.100155 263:0.000694 264:-0.021987 265:0.017463 266:0.04903 267:-0.07071 268:-0.007932 269:0.01861 270:-0.036977 271:0.007604 272:0.04311 273:-0.039535 274:0.101711 275:-0.01668 276:0.008808 277:-0.044376 278:-0.000411 279:0.001239 280:-0.107697 281:-0.053972 282:0.037747 283:-0.020356 284:0.003843 285:0.031142 286:0.072857 287:-0.021883 288:0.019096 289:-0.064718 290:0.054919 291:0.015207 292:-0.016066 293:-0.012253 294:-0.014695 295:-0.007425 296:0.03211 297:0.066409 298:0.014477 299:0.03202 300:0.001152 301:-0.042972 302:-0.031348 303:-0.03268 304:0.027095 305:-0.033682 306:-0.034219 307:0.032703 308:0.035309 309:0.031738 310:0.015602 311:0.026517 312:0.006666 313:0.015641 314:0.021288 315:-0.047778 316:0.014094 317:-0.050374 318:0.025481 319:0.093404 320:-0.000142 321:-0.056135 322:-0.057035 323:-0.01926 324:0.008222 325:-0.051478 326:0.054798 327:0.040907 328:0.061326 329:0.00103 330:-0.027288 331:-0.103049 332:-0.004278 333:0.007284 334:0.035615 335:0.012787 336:-0.005144 337:-0.025364 338:0.014134 339:-0.002449 340:-0.078948 341:-0.049049 342:0.047214 343:0.042314 344:0.037106 345:0.031259 346:0.016688 347:0.037431 348:0.007478 349:0.05542 350:0.007506 351:-0.02802 352:0.028245 353:0.070156 354:0.042992 355:0.009313 356:-0.077407 357:-0.035012 358:-0.077788 359:0.02181 360:0.07503 361:-0.059532 362:-0.024489 363:-0.02424 364:-0.023872 365:-0.085386 366:0.047938 367:0.057226 368:0.030855 369:-0.095564 370:0.068599 371:-0.041425 372:0.046733 373:-0.010199 374:-0.025312 375:-0.039497 376:0.083438 377:-0.03451 378:-0.020638 379:-0.018329 380:-0.00378 381:-0.042344 382:0.012246 383:-0.053537 384:-0.061402 385:-0.077132 386:-0.04567 387:-0.034813 388:0.027154 389:-0.057462 390:-0.040977 391:0.052719 392:-0.0106 393:-0.040283 394:-0.02787 395:0.024339 396:0.004847 397:0.093536 398:-0.035822 399:0.020077 400:0.000794 401:0.042422 402:0.059462 403:-0.031721 404:-0.018883 405:0.006097 406:0.035272 407:0.012026 408:0.014489 409:0.018702 410:0.010535 411:-0.006201 412:0.055964 413:0.065571 414:-0.008488 415:-0.024905 416:-0.077407 417:-0.040421 418:-0.008303 419:-0.074434 420:-0.019154 421:0.049262 422:-0.061443 423:-0.066346 424:-0.092994 425:-0.002909 426:-0.042839 427:-0.104721 428:0.009333 429:-0.028922 430:0.014167 431:-0.015224 432:-0.009922 433:0.000325 434:-0.001252 435:0.045754 436:0.016806 437:0.028094 438:-0.005801 439:-0.008275 440:-0.009854 441:0.080532 442:-0.010623 443:-0.010502 444:-0.01811 445:-0.011747 446:0.00145 447:-0.058543 448:0.098017 449:0.043183 450:-0.066352 451:-0.000693 452:-0.012742 453:0.046546 454:-0.002717 455:0.12395 456:0.020515 457:0.041806 458:-0.015601 459:0.003127 460:0.042092 461:-0.060236 462:0.095678 463:-0.082604 464:0.036703 465:0.019372 466:-0.049477 467:0.017033 468:-0.038271 469:0.092798 470:0.044407 471:0.005324 472:-0.03373 473:-0.020502 474:-0.011619 475:-0.011007 476:0.067049 477:-0.003257 478:0.010599 479:-0.02098 480:0.052398 481:-0.047661 482:-0.053147 483:0.028615 484:0.007617 485:0.036517 486:0.036732 487:-0.059922 488:0.054632 489:0.03815 490:-0.068202 491:-0.000287 492:0.058557 493:0.024487 494:0.007486 495:-0.034041 496:-0.038212 497:-0.04689 498:0.078859 499:0.020136 500:-0.032635 501:-0.05237 502:-0.03132 503:-0.079896 504:0.00127 505:0.021488 506:0.053528 507:-0.010956 508:-0.00595 509:0.0034 510:0.120371 511:0.038791 
1 0 0 0 0:0.008869299 1:-0.015794646 2:-0.037812945 3:0.017309738 4:-0.013585998 5:0.05657027 6:-0.09563643 7:0.033848364 8:-0.020060422 9:0.049683377 10:0.055770587 11:0.054174274 12:-0.014702526 13:-0.077680446 14:0.023676539 15:-0.030611577 16:-0.0077052056 17:0.030269159 18:0.0099851135 19:-0.05061959 20:-0.06814707 21:0.03690069 22:0.07991011 23:-0.059434887 24:-0.034293324 25:0.013200265 26:0.011860675 27:-0.012243594 28:-0.0653305 29:-0.0044007604 30:-0.010831673 31:0.068407334 32:0.024864584 33:0.026503282 34:0.003952581 35:0.0032923473 36:0.034174494 37:-0.008358879 38:-0.049966685 39:0.023004284 40:0.03723456 41:-0.017163064 42:0.0015108566 43:0.011529775 44:0.02832343 45:-0.007178986 46:0.018984556 47:-0.00273626 48:-0.09867489 49:-0.028257119 50:0.022169827 51:-0.016171038 52:0.018458877 53:-0.0046073594 54:-0.07660575 55:0.07124755 56:-0.021830676 57:0.056543697 58:-0.039571483 59:0.004573523 60:-0.033602934 61:0.0837538 62:-0.10781501 63:-0.017321145 64:-0.002025089 65:0.037820786 66:0.01584692 67:-0.032524005 68:-0.011060798 69:-0.0076092985 70:0.10740376 71:0.03616418 72:-0.051140483 73:-0.0054180147 74:0.0035833223 75:-0.029173821 76:-0.07595954 77:0.013842672 78:-0.008000741 79:-0.01959265 80:0.060059477 81:0.055496994 82:-0.010575897 83:-0.054997984 84:0.018074792 85:0.036002625 86:-0.03263179 87:0.07269843 88:-0.025629627 89:0.028141309 90:0.0009088975 91:-0.012494135 92:0.028907185 93:-0.09763901 94:0.030457558 95:0.023979925 96:0.005801586 97:0.040174842 98:-0.0657262 99:0.040765826 100:0.014988685 101:0.029749112 102:0.015930803 103:0.041661616 104:0.012767995 105:0.049021833 106:0.021279695 107:-0.050759535 108:-0.06281802 109:-0.028740957 110:0.028035715 111:-0.008089872 112:-0.0543777 113:-0.00074282807 114:0.0047054966 115:0.06923067 116:0.05800875 117:0.07159812 118:0.031324223 119:0.091657534 120:-0.06014018 121:-0.039999798 122:-0.008602768 123:0.00235722 124:-0.0001979604 125:-0.016118657 126:0.024880325 127:0.017339347 128:-0.036966234 129:-0.14533134 130:-0.02047358 131:-0.06010468 132:0.05839002 133:-0.06883859 134:-0.031667918 135:0.03753821 136:-0.038199782 137:-0.04174599 138:0.0065262835 139:0.057246123 140:-0.040161207 141:-0.0025206688 142:-0.047993656 143:0.038745143 144:-0.02371535 145:-0.033894826 146:-0.0637252 147:0.0593335 148:0.04988296 149:0.023837345 150:0.01035802 151:0.019512821 152:-0.05911218 153:0.0072420794 154:0.096564464 155:0.020690132 156:0.010328372 157:0.0345422 158:0.04400305 159:-0.027425392 160:0.05015611 161:0.03232121 162:-0.042930912 163:0.028621672 164:0.034473196 165:-0.038674947 166:-0.026402488 167:-0.06020815 168:0.0037433598 169:0.07488445 170:-0.11329226 171:0.041307155 172:-0.07548389 173:-0.019656813 174:-0.013271175 175:0.031243812 176:0.060284335 177:0.014905293 178:-0.08806962 179:-0.04779219 180:-0.018179271 181:0.000801086 182:0.007873336 183:0.1153605 184:0.046585623 185:0.0020938893 186:0.03170966 187:0.09979739 188:0.06778899 189:0.06336641 190:0.060955234 191:0.014098618 192:0.11963754 193:-0.009999443 194:0.043692734 195:0.015445272 196:0.06441615 197:0.024648812 198:-0.006086708 199:0.004349166 200:0.051283877 201:-0.066835634 202:0.045803588 203:-0.029140957 204:-0.003681841 205:0.06770127 206:-0.010666428 207:0.016284505 208:0.010411845 209:0.05170047 210:-0.03960606 211:0.0063426937 212:-0.035854474 213:-0.009295688 214:-0.013757072 215:-0.036246154 216:-0.017045693 217:0.01078256 218:-0.030045131 219:0.042164303 220:-0.012601728 221:0.025341507 222:0.020056583 223:-0.011819119 224:0.0069822916 225:-0.0039092475 226:-0.014388432 227:-0.01457784 228:-0.053764537 229:0.08962357 230:0.023640491 231:0.06748391 232:-0.004092174 233:-0.047098275 234:-0.008428758 235:0.0430639 236:0.023213068 237:-0.03362929 238:-0.014506905 239:0.002280801 240:-0.06506701 241:0.08084984 242:-0.010049862 243:0.013194354 244:0.005004803 245:0.014708166 246:-0.016870435 247:0.03788821 248:0.041923236 249:0.065321535 250:-0.022951981 251:0.024003316 252:0.056410205 253:-0.010280374 254:0.0050735753 255:0.0036906213 256:0.040513176 257:0.0061425865 258:0.0029734054 259:0.09238201 260:0.051101424 261:-0.019127268 262:0.0014477927 263:0.009621813 264:-0.060408823 265:-0.029984705 266:0.0045212735 267:-0.0023554668 268:-0.019332474 269:-0.042836532 270:-0.07264723 271:0.04166981 272:0.011872528 273:-0.043098956 274:-0.019908406 275:-0.0279455 276:-0.033181164 277:-0.07498096 278:0.015211027 279:-0.015067482 280:-0.0078247385 281:0.08536152 282:-0.040350225 283:-0.07636602 284:-0.010264684 285:0.01785566 286:0.08116736 287:0.012311797 288:-0.03127761 289:-0.10645766 290:0.026896793 291:0.011639887 292:0.055955496 293:0.047713414 294:-0.03431702 295:-0.059596524 296:0.08611576 297:0.0674189 298:0.055534665 299:0.03762564 300:-0.0018475022 301:0.015199676 302:-0.044988424 303:-0.020214323 304:0.043844417 305:-0.043614484 306:-0.012074633 307:-0.0036863922 308:-0.030336995 309:0.020326786 310:0.0015416717 311:0.027719522 312:-0.013722207 313:-0.020176936 314:0.08320311 315:0.025222935 316:-0.006181961 317:0.014232195 318:0.039280623 319:-0.027067928 320:0.12457047 321:-0.061570104 322:-0.061685976 323:0.029912325 324:0.02859739 325:-0.012233793 326:0.06173761 327:0.039265506 328:0.086914845 329:0.0653078 330:0.016975107 331:0.047893193 332:-0.025565244 333:0.055101406 334:0.028931888 335:0.11294702 336:-0.052922077 337:0.015706146 338:-0.01834466 339:0.0028251866 340:0.010979029 341:-0.026201498 342:0.045761272 343:0.031881858 344:-0.006288226 345:-0.015877167 346:0.042754885 347:0.05319989 348:0.04456344 349:0.06804724 350:-0.025864515 351:0.027944224 352:-0.0879752 353:0.03925769 354:-0.011604318 355:0.00045847535 356:0.08561372 357:-0.039692543 358:-0.0065324088 359:-0.025089022 360:0.03388994 361:-0.022483207 362:-0.10238734 363:-0.06478218 364:-0.03938183 365:0.008024798 366:0.045597777 367:0.027443258 368:-0.008609028 369:-0.018759437 370:-0.041907694 371:-0.0218678 372:-0.03655023 373:0.017206762 374:0.034175448 375:0.03185613 376:0.033237867 377:-0.010766012 378:-0.008105285 379:-0.06150568 380:-0.037825502 381:-0.03790656 382:0.013842028 383:-0.017833192 384:-0.0033037937 385:-0.10099405 386:0.012259244 387:-0.059764665 388:0.012917873 389:-0.06967666 390:-0.015458477 391:0.05209696 392:0.011684207 393:-0.08524394 394:0.050129514 395:-0.03140042 396:0.023461133 397:0.04049575 398:0.012983621 399:0.06291517 400:-0.049744457 401:0.041597527 402:0.019915584 403:0.017671024 404:0.006697103 405:-0.035885096 406:0.030714886 407:-0.017449673 408:0.07724542 409:-0.051963393 410:0.042686854 411:-0.05313004 412:0.03217299 413:-0.0064492393 414:-0.027449666 415:0.0424371 416:0.03081046 417:0.033727605 418:-0.05130385 419:-0.048216693 420:0.07680491 421:0.03154263 422:-0.015892385 423:0.1047496 424:-0.046411738 425:-0.036009 426:0.04205464 427:-0.055221837 428:0.0054150624 429:-0.07708238 430:-0.052136153 431:0.045785137 432:0.030629016 433:-0.069818765 434:-0.018270288 435:-0.018612284 436:0.028191168 437:-0.04327301 438:-0.10571619 439:-0.068896666 440:-0.05702894 441:0.012494001 442:0.022828272 443:0.054374773 444:-0.0058070812 445:-0.030259795 446:0.016267639 447:0.011805738 448:-0.058495387 449:-0.039044376 450:-0.01315959 451:0.06349326 452:0.061005812 453:-0.024306308 454:-0.025443573 455:0.049393117 456:0.013615694 457:0.11600424 458:0.03117324 459:-0.009124909 460:0.012807185 461:0.043559007 462:6.3355214e-06 463:-0.02673368 464:0.056604277 465:-0.003963846 466:-0.070106536 467:0.0055372803 468:0.02810418 469:-0.0067226123 470:0.07590305 471:-0.01067842 472:0.007210354 473:-0.0073451977 474:-0.06389951 475:-0.026155734 476:0.056781325 477:-0.011705253 478:0.049715955 479:0.041866254 480:0.031550232 481:-0.034397557 482:0.0019527067 483:0.01904468 484:0.03528106 485:0.008029617 486:-0.043821182 487:-0.027990079 488:0.036617365 489:-0.06230301 490:-0.00042301725 491:-0.0049226396 492:-0.022602115 493:-0.049995836 494:0.054654174 495:-0.076814055 496:0.039115727 497:-0.07864046 498:-0.012308672 499:-0.028720614 500:-0.07961405 501:0.007961731 502:-0.019718787 503:0.026918376 504:-0.012562767 505:0.00781348 506:-0.05102475 507:0.013664007 508:-0.0024172466 509:-0.031323183 510:-0.020897703 511:0.010100591 
1 0 0 0 0:0.008869299 1:-0.015794646 2:-0.037812945 3:0.017309738 4:-0.013585998 5:0.05657027 6:-0.09563643 7:0.033848364 8:-0.020060422 9:0.049683377 10:0.055770587 11:0.054174274 12:-0.014702526 13:-0.077680446 14:0.023676539 15:-0.030611577 16:-0.0077052056 17:0.030269159 18:0.0099851135 19:-0.05061959 20:-0.06814707 21:0.03690069 22:0.07991011 23:-0.059434887 24:-0.034293324 25:0.013200265 26:0.011860675 27:-0.012243594 28:-0.0653305 29:-0.0044007604 30:-0.010831673 31:0.068407334 32:0.024864584 33:0.026503282 34:0.003952581 35:0.0032923473 36:0.034174494 37:-0.008358879 38:-0.049966685 39:0.023004284 40:0.03723456 41:-0.017163064 42:0.0015108566 43:0.011529775 44:0.02832343 45:-0.007178986 46:0.018984556 47:-0.00273626 48:-0.09867489 49:-0.028257119 50:0.022169827 51:-0.016171038 52:0.018458877 53:-0.0046073594 54:-0.07660575 55:0.07124755 56:-0.021830676 57:0.056543697 58:-0.039571483 59:0.004573523 60:-0.033602934 61:0.0837538 62:-0.10781501 63:-0.017321145 64:-0.002025089 65:0.037820786 66:0.01584692 67:-0.032524005 68:-0.011060798 69:-0.0076092985 70:0.10740376 71:0.03616418 72:-0.051140483 73:-0.0054180147 74:0.0035833223 75:-0.029173821 76:-0.07595954 77:0.013842672 78:-0.008000741 79:-0.01959265 80:0.060059477 81:0.055496994 82:-0.010575897 83:-0.054997984 84:0.018074792 85:0.036002625 86:-0.03263179 87:0.07269843 88:-0.025629627 89:0.028141309 90:0.0009088975 91:-0.012494135 92:0.028907185 93:-0.09763901 94:0.030457558 95:0.023979925 96:0.005801586 97:0.040174842 98:-0.0657262 99:0.040765826 100:0.014988685 101:0.029749112 102:0.015930803 103:0.041661616 104:0.012767995 105:0.049021833 106:0.021279695 107:-0.050759535 108:-0.06281802 109:-0.028740957 110:0.028035715 111:-0.008089872 112:-0.0543777 113:-0.00074282807 114:0.0047054966 115:0.06923067 116:0.05800875 117:0.07159812 118:0.031324223 119:0.091657534 120:-0.06014018 121:-0.039999798 122:-0.008602768 123:0.00235722 124:-0.0001979604 125:-0.016118657 126:0.024880325 127:0.017339347 128:-0.036966234 129:-0.14533134 130:-0.02047358 131:-0.06010468 132:0.05839002 133:-0.06883859 134:-0.031667918 135:0.03753821 136:-0.038199782 137:-0.04174599 138:0.0065262835 139:0.057246123 140:-0.040161207 141:-0.0025206688 142:-0.047993656 143:0.038745143 144:-0.02371535 145:-0.033894826 146:-0.0637252 147:0.0593335 148:0.04988296 149:0.023837345 150:0.01035802 151:0.019512821 152:-0.05911218 153:0.0072420794 154:0.096564464 155:0.020690132 156:0.010328372 157:0.0345422 158:0.04400305 159:-0.027425392 160:0.05015611 161:0.03232121 162:-0.042930912 163:0.028621672 164:0.034473196 165:-0.038674947 166:-0.026402488 167:-0.06020815 168:0.0037433598 169:0.07488445 170:-0.11329226 171:0.041307155 172:-0.07548389 173:-0.019656813 174:-0.013271175 175:0.031243812 176:0.060284335 177:0.014905293 178:-0.08806962 179:-0.04779219 180:-0.018179271 181:0.000801086 182:0.007873336 183:0.1153605 184:0.046585623 185:0.0020938893 186:0.03170966 187:0.09979739 188:0.06778899 189:0.06336641 190:0.060955234 191:0.014098618 192:0.11963754 193:-0.009999443 194:0.043692734 195:0.015445272 196:0.06441615 197:0.024648812 198:-0.006086708 199:0.004349166 200:0.051283877 201:-0.066835634 202:0.045803588 203:-0.029140957 204:-0.003681841 205:0.06770127 206:-0.010666428 207:0.016284505 208:0.010411845 209:0.05170047 210:-0.03960606 211:0.0063426937 212:-0.035854474 213:-0.009295688 214:-0.013757072 215:-0.036246154 216:-0.017045693 217:0.01078256 218:-0.030045131 219:0.042164303 220:-0.012601728 221:0.025341507 222:0.020056583 223:-0.011819119 224:0.0069822916 225:-0.0039092475 226:-0.014388432 227:-0.01457784 228:-0.053764537 229:0.08962357 230:0.023640491 231:0.06748391 232:-0.004092174 233:-0.047098275 234:-0.008428758 235:0.0430639 236:0.023213068 237:-0.03362929 238:-0.014506905 239:0.002280801 240:-0.06506701 241:0.08084984 242:-0.010049862 243:0.013194354 244:0.005004803 245:0.014708166 246:-0.016870435 247:0.03788821 248:0.041923236 249:0.065321535 250:-0.022951981 251:0.024003316 252:0.056410205 253:-0.010280374 254:0.0050735753 255:0.0036906213 256:0.040513176 257:0.0061425865 258:0.0029734054 259:0.09238201 260:0.051101424 261:-0.019127268 262:0.0014477927 263:0.009621813 264:-0.060408823 265:-0.029984705 266:0.0045212735 267:-0.0023554668 268:-0.019332474 269:-0.042836532 270:-0.07264723 271:0.04166981 272:0.011872528 273:-0.043098956 274:-0.019908406 275:-0.0279455 276:-0.033181164 277:-0.07498096 278:0.015211027 279:-0.015067482 280:-0.0078247385 281:0.08536152 282:-0.040350225 283:-0.07636602 284:-0.010264684 285:0.01785566 286:0.08116736 287:0.012311797 288:-0.03127761 289:-0.10645766 290:0.026896793 291:0.011639887 292:0.055955496 293:0.047713414 294:-0.03431702 295:-0.059596524 296:0.08611576 297:0.0674189 298:0.055534665 299:0.03762564 300:-0.0018475022 301:0.015199676 302:-0.044988424 303:-0.020214323 304:0.043844417 305:-0.043614484 306:-0.012074633 307:-0.0036863922 308:-0.030336995 309:0.020326786 310:0.0015416717 311:0.027719522 312:-0.013722207 313:-0.020176936 314:0.08320311 315:0.025222935 316:-0.006181961 317:0.014232195 318:0.039280623 319:-0.027067928 320:0.12457047 321:-0.061570104 322:-0.061685976 323:0.029912325 324:0.02859739 325:-0.012233793 326:0.06173761 327:0.039265506 328:0.086914845 329:0.0653078 330:0.016975107 331:0.047893193 332:-0.025565244 333:0.055101406 334:0.028931888 335:0.11294702 336:-0.052922077 337:0.015706146 338:-0.01834466 339:0.0028251866 340:0.010979029 341:-0.026201498 342:0.045761272 343:0.031881858 344:-0.006288226 345:-0.015877167 346:0.042754885 347:0.05319989 348:0.04456344 349:0.06804724 350:-0.025864515 351:0.027944224 352:-0.0879752 353:0.03925769 354:-0.011604318 355:0.00045847535 356:0.08561372 357:-0.039692543 358:-0.0065324088 359:-0.025089022 360:0.03388994 361:-0.022483207 362:-0.10238734 363:-0.06478218 364:-0.03938183 365:0.008024798 366:0.045597777 367:0.027443258 368:-0.008609028 369:-0.018759437 370:-0.041907694 371:-0.0218678 372:-0.03655023 373:0.017206762 374:0.034175448 375:0.03185613 376:0.033237867 377:-0.010766012 378:-0.008105285 379:-0.06150568 380:-0.037825502 381:-0.03790656 382:0.013842028 383:-0.017833192 384:-0.0033037937 385:-0.10099405 386:0.012259244 387:-0.059764665 388:0.012917873 389:-0.06967666 390:-0.015458477 391:0.05209696 392:0.011684207 393:-0.08524394 394:0.050129514 395:-0.03140042 396:0.023461133 397:0.04049575 398:0.012983621 399:0.06291517 400:-0.049744457 401:0.041597527 402:0.019915584 403:0.017671024 404:0.006697103 405:-0.035885096 406:0.030714886 407:-0.017449673 408:0.07724542 409:-0.051963393 410:0.042686854 411:-0.05313004 412:0.03217299 413:-0.0064492393 414:-0.027449666 415:0.0424371 416:0.03081046 417:0.033727605 418:-0.05130385 419:-0.048216693 420:0.07680491 421:0.03154263 422:-0.015892385 423:0.1047496 424:-0.046411738 425:-0.036009 426:0.04205464 427:-0.055221837 428:0.0054150624 429:-0.07708238 430:-0.052136153 431:0.045785137 432:0.030629016 433:-0.069818765 434:-0.018270288 435:-0.018612284 436:0.028191168 437:-0.04327301 438:-0.10571619 439:-0.068896666 440:-0.05702894 441:0.012494001 442:0.022828272 443:0.054374773 444:-0.0058070812 445:-0.030259795 446:0.016267639 447:0.011805738 448:-0.058495387 449:-0.039044376 450:-0.01315959 451:0.06349326 452:0.061005812 453:-0.024306308 454:-0.025443573 455:0.049393117 456:0.013615694 457:0.11600424 458:0.03117324 459:-0.009124909 460:0.012807185 461:0.043559007 462:6.3355214e-06 463:-0.02673368 464:0.056604277 465:-0.003963846 466:-0.070106536 467:0.0055372803 468:0.02810418 469:-0.0067226123 470:0.07590305 471:-0.01067842 472:0.007210354 473:-0.0073451977 474:-0.06389951 475:-0.026155734 476:0.056781325 477:-0.011705253 478:0.049715955 479:0.041866254 480:0.031550232 481:-0.034397557 482:0.0019527067 483:0.01904468 484:0.03528106 485:0.008029617 486:-0.043821182 487:-0.027990079 488:0.036617365 489:-0.06230301 490:-0.00042301725 491:-0.0049226396 492:-0.022602115 493:-0.049995836 494:0.054654174 495:-0.076814055 496:0.039115727 497:-0.07864046 498:-0.012308672 499:-0.028720614 500:-0.07961405 501:0.007961731 502:-0.019718787 503:0.026918376 504:-0.012562767 505:0.00781348 506:-0.05102475 507:0.013664007 508:-0.0024172466 509:-0.031323183 510:-0.020897703 511:0.010100591 
0.8261318914386622 0.3964477889855256 0 0.4180301286781058 0:0.028783442 1:0.0441652 2:-0.018140048 3:0.011270323 4:-0.03170676 5:-0.012257048 6:-0.019400021 7:0.050258067 8:-0.029374953 9:0.062060732 10:-0.072294585 11:-0.025409471 12:0.031033248 13:0.030489042 14:0.004729005 15:0.002330697 16:0.008119297 17:-0.0045698523 18:0.028789736 19:0.039573766 20:0.056582518 21:0.015060348 22:-0.008554346 23:0.027340528 24:0.10432978 25:-0.030418018 26:0.026684634 27:-0.032324724 28:0.0932517 29:-0.008079337 30:-0.001648258 31:0.02113113 32:-0.026539402 33:0.067871645 34:0.08055988 35:-0.0879565 36:-0.019261174 37:-0.080789775 38:0.008770354 39:-0.005021867 40:-0.015050814 41:0.024453398 42:-0.027984092 43:0.029321862 44:-0.054133907 45:0.05974089 46:-0.022121325 47:-0.027508492 48:0.021035893 49:0.07369975 50:0.00022685528 51:-0.028086226 52:0.04892424 53:-0.005031265 54:-0.00015688436 55:-0.0419091 56:0.004580869 57:0.025111727 58:-0.006599291 59:-0.0091715325 60:0.057228114 61:0.013201647 62:-0.014489218 63:-0.028249783 64:-0.009587738 65:-0.023798792 66:-0.0046413294 67:0.024957975 68:0.053588256 69:-0.013316796 70:-0.052436028 71:0.038647994 72:-0.10958797 73:0.10393226 74:0.09427104 75:0.050904352 76:-0.0444935 77:0.0040995977 78:-0.0013932716 79:-0.012164434 80:0.04328454 81:-0.087818176 82:-0.020354703 83:-0.0737123 84:-0.07740825 85:0.006736755 86:0.025078507 87:0.026080178 88:-0.029648842 89:0.033121444 90:0.030269517 91:-0.06887528 92:0.008681802 93:-0.013345264 94:-0.015633205 95:0.025743134 96:0.060025796 97:-0.04449968 98:-0.060197394 99:0.0439817 100:0.025801241 101:-0.0029136294 102:0.08029997 103:-0.054245915 104:-0.049279805 105:-0.027387885 106:-0.06134172 107:-0.050559692 108:-0.05225964 109:-0.012192516 110:0.03223136 111:-0.030653672 112:0.003447803 113:-0.071672305 114:-0.013958904 115:-0.003784015 116:-0.014468204 117:0.031215196 118:-0.034643404 119:0.050188553 120:0.046875652 121:0.122081 122:-0.001211135 123:-0.0027340907 124:0.026308136 125:0.034166954 126:0.046110474 127:-0.03587222 128:0.00052771956 129:-0.0024809928 130:0.01295622 131:0.0019253591 132:-0.01002112 133:-0.030594006 134:0.04427493 135:-0.06308931 136:0.033389546 137:0.010638568 138:0.0002611558 139:0.029104654 140:-0.04036056 141:0.029283755 142:0.03162239 143:-0.04813834 144:0.07313283 145:0.09078616 146:0.0054926216 147:0.040513325 148:0.032226045 149:-0.09377142 150:0.003409205 151:-0.0012112219 152:-0.015594577 153:0.010850973 154:-0.034594014 155:-0.03849781 156:-0.059226748 157:0.08857363 158:0.003576306 159:-0.0063272673 160:-0.014568532 161:0.009464526 162:-0.01699351 163:0.060444612 164:0.051728625 165:0.10407086 166:-0.028387865 167:-0.0390554 168:-0.0045592976 169:0.035236273 170:0.031653173 171:0.010165796 172:0.09266475 173:-0.023779321 174:0.008256888 175:-0.089434855 176:-0.03279237 177:0.004286683 178:-0.083015196 179:0.0015450892 180:0.011920931 181:-0.023692494 182:0.019015571 183:0.008590206 184:0.048228264 185:0.031950947 186:0.05699694 187:-0.09798342 188:-0.050382886 189:-0.060348444 190:0.018200116 191:0.060518306 192:0.087206304 193:-0.01196248 194:-0.054864 195:-0.043411233 196:-0.047330882 197:-0.07716282 198:0.029219702 199:0.020220954 200:0.018854087 201:0.030349843 202:0.0068237865 203:-0.002798576 204:0.020641549 205:-0.036805358 206:-0.049142804 207:-0.035990305 208:-0.041594457 209:0.03905932 210:-0.030872792 211:0.0013540394 212:-0.025968986 213:0.026992686 214:0.05142798 215:0.10592415 216:0.09039525 217:-0.075947925 218:0.020288695 219:-0.0041141864 220:0.003327912 221:0.016758597 222:-0.058674786 223:-0.009746152 224:0.015741376 225:0.04629337 226:0.03383694 227:-0.039247014 228:0.062136386 229:0.033514407 230:0.014690257 231:-0.006428503 232:0.046915803 233:-0.039544865 234:0.0080747185 235:0.10940857 236:0.028714346 237:-0.023362612 238:0.03870761 239:0.042571977 240:-0.014205141 241:0.040188324 242:-0.056547962 243:0.016756004 244:0.02295207 245:0.024822019 246:0.022203216 247:-0.02322605 248:0.039332047 249:-0.04720314 250:6.509698e-05 251:0.012020196 252:-0.0031946495 253:0.005554897 254:0.023687456 255:-0.037994325 256:0.03948884 257:0.006913234 258:-0.0034436125 259:0.03613296 260:-0.019146506 261:-0.031662844 262:-0.002179213 263:-0.045037486 264:-0.038319528 265:-0.06775005 266:-0.032525375 267:0.013131303 268:-0.022318626 269:-0.017735742 270:0.07228944 271:0.07633466 272:-0.012075692 273:0.07586909 274:-0.012417546 275:0.008230356 276:-0.03575484 277:0.013620645 278:0.0029302128 279:0.004841515 280:0.0204671 281:-0.07763192 282:-0.0074953707 283:0.037963197 284:0.008891636 285:-0.053147346 286:0.02208051 287:-0.08988177 288:-0.10802093 289:0.03382154 290:-0.06913725 291:0.033176634 292:0.0067781233 293:0.020372337 294:-0.033863474 295:-0.006985393 296:-0.1025144 297:0.0024604087 298:-0.043497752 299:0.06413009 300:0.084328115 301:-0.059244927 302:0.047167543 303:0.09494731 304:0.04439132 305:-0.059325315 306:0.064823836 307:0.0035568064 308:-0.04644574 309:-0.015659094 310:-0.08016388 311:-0.0015260774 312:-0.015618907 313:0.02245695 314:0.008299143 315:-0.049759116 316:-0.03423256 317:-0.05128495 318:-0.00012826806 319:-0.032721464 320:-0.004326535 321:-0.0379962 322:-0.060489412 323:-0.04296562 324:-0.080162235 325:0.02328789 326:0.002952252 327:-0.094374105 328:-0.07460538 329:0.0304462 330:-0.034531202 331:-0.028025722 332:-0.06846289 333:-0.029394897 334:-0.042432934 335:0.04421887 336:-0.026576111 337:-0.013933321 338:0.03655526 339:0.012652431 340:0.029907988 341:0.018333884 342:0.039662916 343:0.015353192 344:0.013966172 345:-0.006322336 346:-0.017918244 347:0.026509345 348:-0.030438052 349:0.07557541 350:-0.041101273 351:-0.030384092 352:0.02272719 353:0.07534721 354:-0.015533921 355:0.014470543 356:0.071561515 357:0.030480938 358:-0.069326095 359:-0.017391952 360:0.013312378 361:-0.06401686 362:-0.030804612 363:0.037944797 364:0.0019386718 365:0.037476014 366:-0.020340985 367:0.038595334 368:-0.03775255 369:0.0899904 370:0.030052375 371:0.094178624 372:-0.0013962456 373:-0.03028208 374:-0.021571258 375:-0.058557156 376:-0.07064353 377:-0.091624856 378:0.00033784856 379:0.023541043 380:0.0037623835 381:0.036924917 382:0.07514027 383:-0.03609531 384:0.033892065 385:0.012176983 386:-0.013640625 387:0.016805068 388:-0.027211204 389:0.05640405 390:-0.0072934986 391:0.07027269 392:-0.033461962 393:0.039557304 394:-0.018574908 395:-0.044361472 396:0.033722088 397:0.063985184 398:0.020651272 399:-0.009546284 400:0.026816024 401:0.034484006 402:0.07267812 403:0.020069608 404:-0.09957984 405:-0.08826058 406:0.016578926 407:0.051869355 408:-0.045054145 409:-0.01395457 410:-0.03661445 411:-0.06873306 412:-0.08720738 413:0.051687438 414:-0.074642584 415:-0.08798695 416:-0.008588259 417:-0.052846193 418:0.08578334 419:-0.045304477 420:-0.033181284 421:0.07411135 422:0.03250013 423:0.0604461 424:0.05718191 425:0.0018714534 426:0.051113255 427:-0.035052426 428:-0.04933207 429:-0.04912793 430:0.05768267 431:-0.012072985 432:-0.0060429913 433:-0.012154088 434:0.06050504 435:0.009716482 436:0.06649408 437:-0.010176282 438:0.034976978 439:-0.046845365 440:-0.032115426 441:-0.061833356 442:0.0027643966 443:0.0243993 444:0.031534437 445:0.021975521 446:0.02467641 447:-0.01464603 448:0.03301377 449:-0.043271847 450:0.05338545 451:-0.007983987 452:0.03223 453:-0.0019128785 454:0.0470173 455:-0.017513895 456:0.04575539 457:0.051205173 458:0.027670078 459:0.036664005 460:0.01119007 461:0.055765633 462:0.017887909 463:0.010189731 464:-0.0031094034 465:0.051927656 466:-0.011056148 467:-0.03040426 468:0.082077965 469:-0.03251281 470:0.043039337 471:0.021381155 472:0.019529931 473:0.014012004 474:0.056898043 475:0.04309392 476:-0.04574574 477:-0.058924947 478:0.0284445 479:0.04811451 480:0.01071151 481:0.061407126 482:0.06845286 483:0.0464633 484:0.05340173 485:-0.083458364 486:0.005015575 487:-0.008383992 488:0.058434565 489:0.00023019651 490:-0.032291513 491:-0.044684567 492:0.03064577 493:-0.011721802 494:0.06555527 495:0.01796991 496:0.05305291 497:0.009563599 498:0.01777069 499:0.016624276 500:0.051718283 501:-0.035800077 502:0.08189473 503:-0.015537971 504:-0.05403442 505:0.024619374 506:-0.031458445 507:0.031220652 508:-0.007895728 509:0.0025302062 510:-0.03520663 511:-0.037887327 
0.5178199694544192 0.9623685290460837 0 0 0:-0.033295926 1:-0.035153374 2:-0.07237605 3:0.022763632 4:0.04251308 5:0.035005864 6:0.06606237 7:0.0053149685 8:-0.06326637 9:0.03134835 10:-0.04459501 11:-0.029375646 12:-0.07926864 13:0.030240705 14:0.07199646 15:0.029061921 16:-0.03656674 17:0.042780682 18:0.0027218326 19:-0.046437703 20:-0.028617771 21:-0.0042256764 22:-1.9087396e-05 23:0.01193653 24:0.028004857 25:-0.042789087 26:-0.052719016 27:-0.045808688 28:0.072588734 29:-0.016792877 30:-0.06752403 31:-0.011483766 32:0.012012544 33:0.06164986 34:-0.016342357 35:0.017702088 36:0.051193975 37:-0.01744031 38:-0.028255213 39:-0.0041128932 40:0.0007917197 41:0.03006144 42:-0.04171873 43:0.007910746 44:0.044314675 45:0.031637937 46:0.014329091 47:0.035582893 48:-0.043688823 49:0.07223193 50:0.035435017 51:0.0039194413 52:0.035024934 53:-0.010494615 54:-0.044773865 55:-0.028305644 56:-0.005056458 57:0.041670483 58:0.00794342 59:0.04678878 60:-0.019571707 61:0.022854649 62:-0.0033423787 63:-0.073261276 64:-0.059097126 65:-0.02138827 66:-0.0064116004 67:0.0717131 68:-0.018699212 69:-0.010145282 70:-0.078687206 71:0.013881265 72:0.015121669 73:0.019997247 74:0.09105537 75:0.0082111675 76:0.019563632 77:0.05534565 78:-0.045593023 79:0.027472474 80:0.02083565 81:-0.017186359 82:0.007522351 83:0.021877117 84:-0.00935619 85:0.0031948998 86:0.0028714032 87:0.025898665 88:-0.060778778 89:0.02265813 90:0.059427157 91:-0.005459012 92:0.01127627 93:-0.009227462 94:0.04299591 95:-0.01031064 96:0.0073119593 97:0.003068197 98:-0.080804825 99:0.040405914 100:0.06644987 101:-0.013587547 102:0.043141223 103:-0.015304389 104:-0.045327634 105:-0.052382328 106:-0.020032134 107:-0.02924424 108:-0.038899858 109:-0.078977935 110:0.026150014 111:0.024018364 112:-0.0022292892 113:-0.07961486 114:0.016576419 115:0.006997182 116:0.035250396 117:-0.0602878 118:0.005842456 119:0.045407485 120:0.025437905 121:0.058074534 122:0.081113465 123:-0.016284617 124:-0.012666991 125:-0.0379717 126:-0.016352551 127:-0.025868768 128:0.050655257 129:-0.007849505 130:0.01932891 131:0.00044297206 132:0.015767809 133:-0.0035773383 134:-0.044268277 135:-0.04260858 136:0.087033644 137:0.016978066 138:-0.018449167 139:0.038625572 140:-0.015881084 141:0.019678105 142:0.003907741 143:0.024161546 144:0.10030711 145:0.012331196 146:-0.030259343 147:-0.010257396 148:-0.010071695 149:-0.085811354 150:0.003444412 151:-0.037052438 152:-0.081502 153:-0.07020322 154:0.0045078928 155:-0.050201315 156:-0.08468707 157:0.12401405 158:-0.009250793 159:-0.026900627 160:0.011046515 161:-0.0070555294 162:-0.048903655 163:0.014614486 164:0.04728 165:0.0893293 166:-0.08634043 167:0.0025871927 168:-0.05526368 169:0.054999918 170:0.02484872 171:-0.0064179925 172:0.051838536 173:-0.049128406 174:0.06764779 175:-0.0281157 176:0.07752636 177:-0.03781424 178:-0.09126967 179:-0.018748848 180:-0.005106675 181:0.023404615 182:0.007075193 183:-0.016255468 184:0.001623228 185:-0.058617834 186:0.0794955 187:-0.10786635 188:-6.9004265e-05 189:-0.00844552 190:0.021975663 191:-0.013033546 192:0.14088193 193:0.0171556 194:-0.006924823 195:-0.05929027 196:-0.060775787 197:0.06279499 198:-0.09166661 199:0.063934155 200:-0.002067315 201:0.024349067 202:0.06058451 203:-0.051390022 204:-0.02488454 205:-0.019636214 206:0.035335742 207:-0.00979144 208:0.013624391 209:0.08309323 210:-0.004514478 211:-0.054393377 212:-0.054280434 213:0.005343422 214:0.020019915 215:0.05651976 216:-0.0029236705 217:-0.016568867 218:0.011483923 219:0.009515661 220:-0.022962673 221:-0.04300882 222:-0.042032752 223:-0.09559079 224:-0.03939665 225:-0.005773962 226:0.06026956 227:0.013674201 228:-0.058897533 229:0.08273002 230:-0.022176605 231:0.025986608 232:-0.07861212 233:-0.013509326 234:0.009191922 235:0.006115275 236:0.048508283 237:-0.03782117 238:-0.016136419 239:0.011157405 240:-0.05230745 241:-0.05107812 242:-0.003255967 243:0.04413337 244:0.054721676 245:0.041608203 246:0.016337596 247:0.017959064 248:-0.0071936473 249:0.01694036 250:0.068597235 251:0.053108312 252:-0.030688928 253:-0.020920837 254:-0.029094085 255:-0.01833906 256:-0.051139913 257:0.037171874 258:0.07594254 259:0.06814216 260:-0.042659417 261:-0.01212914 262:-0.006421188 263:0.0024050393 264:-0.041952707 265:-0.019004185 266:0.027904557 267:-0.01596999 268:-0.022378165 269:-0.024751425 270:-0.02994807 271:-0.036385167 272:-0.07693545 273:0.050627194 274:0.011854016 275:-0.11024353 276:-0.05658913 277:0.068578854 278:-0.04131564 279:0.031067044 280:-0.032980252 281:0.017624365 282:-0.034246396 283:-0.057762735 284:-0.044395488 285:-0.036790736 286:0.014873278 287:-0.032800484 288:-0.027611453 289:-0.08222848 290:-0.020136619 291:-0.021134937 292:-0.005624737 293:0.008384041 294:-0.031183902 295:0.0023401324 296:-0.0064669903 297:0.023718063 298:-0.05956388 299:0.020361634 300:0.050369687 301:-0.037341777 302:0.06997385 303:0.09719215 304:0.06386112 305:-0.024724176 306:0.0008415072 307:-0.00023777151 308:0.02742575 309:-0.02606024 310:-0.052091666 311:0.07936898 312:0.014739864 313:0.074792154 314:0.058304656 315:-0.019344442 316:-0.0574856 317:-0.045591805 318:0.0029761114 319:0.0009610812 320:0.016374934 321:0.014003323 322:-0.031891134 323:0.0069755977 324:-0.0025228679 325:0.004198622 326:-0.009366726 327:-0.0338299 328:-0.064543724 329:0.021420868 330:-0.040270537 331:-0.043249056 332:-0.053492427 333:0.03254974 334:-0.094732314 335:-0.029663684 336:0.04170257 337:0.006184269 338:-0.018015046 339:0.007065231 340:0.020481197 341:0.03910325 342:0.06288056 343:0.0033760986 344:0.04689234 345:-0.06584746 346:-0.044687204 347:0.0546384 348:0.017617818 349:0.022927297 350:0.015583234 351:0.002328658 352:-0.04044726 353:0.047387067 354:-0.004075518 355:0.045631602 356:0.01865441 357:0.030039309 358:-0.048702 359:-0.01580836 360:-0.029353086 361:-0.04878339 362:-0.023657897 363:0.031588826 364:-0.10420389 365:0.05757274 366:-0.007149027 367:0.020629322 368:-0.014531313 369:-0.02864674 370:0.028321065 371:0.0179523 372:-0.01654479 373:-0.018167386 374:-0.032259233 375:0.034479737 376:-0.02202536 377:-0.08080033 378:0.017388668 379:0.009979279 380:-0.011953488 381:-0.03418285 382:-0.018171487 383:0.051463705 384:0.025417374 385:-0.011040513 386:-0.046468645 387:-0.013169706 388:-0.04370588 389:-0.019506386 390:0.026186626 391:0.066510186 392:0.044194072 393:-0.046045344 394:-0.02021323 395:-0.025528774 396:0.04367236 397:0.012818346 398:0.0977596 399:0.042896353 400:-0.032673288 401:0.030264257 402:0.0091406405 403:-0.024185084 404:-0.06592476 405:-0.042625524 406:0.04252765 407:-0.079564966 408:0.034409855 409:0.06068896 410:0.0018822427 411:-0.014086944 412:-0.034719095 413:-0.001482057 414:-0.043545634 415:-0.08708758 416:-0.026590578 417:-0.030935442 418:0.0641616 419:-0.09382014 420:-0.051327214 421:0.007985645 422:-0.021028921 423:-0.03454608 424:-0.010854021 425:0.058467586 426:0.061810084 427:0.046452206 428:-0.05894113 429:-0.026731124 430:0.07618718 431:0.042067625 432:-0.05280244 433:-0.066974215 434:-0.02935677 435:-0.015401753 436:0.049919296 437:0.006094719 438:-0.014323407 439:-0.08145678 440:-0.09194307 441:-0.028841747 442:-0.046082288 443:-0.016897712 444:-0.029749934 445:0.0085076215 446:-0.018953029 447:0.045026813 448:-0.006670193 449:-0.10101606 450:0.059810977 451:0.0054307277 452:-0.029914577 453:-0.021342678 454:0.012457847 455:-0.0556436 456:0.06860379 457:0.0899565 458:0.10081733 459:0.08047984 460:-0.013462327 461:0.052558955 462:-0.018171676 463:-0.014193051 464:0.06480566 465:0.017559202 466:-0.022831213 467:-0.034232296 468:0.019161917 469:0.012233993 470:-0.020419603 471:-0.04525527 472:-0.015859019 473:-0.035017874 474:-0.027184239 475:-0.0067977537 476:0.08164684 477:0.020813186 478:0.0661869 479:0.07321552 480:0.044940636 481:0.009308733 482:-0.003164453 483:0.007032509 484:0.03198665 485:0.018408954 486:-0.08425617 487:-0.076505005 488:0.04586029 489:0.027424699 490:-0.10505776 491:-0.036752857 492:0.0015793132 493:-0.042904083 494:0.08452532 495:-0.010201083 496:-0.016661128 497:0.050922345 498:0.033140235 499:0.024488294 500:-0.06440426 501:-0.028166959 502:0.07690916 503:0.005158257 504:-0.003839558 505:0.019787913 506:0.03865043 507:0.076503426 508:0.03263652 509:-0.03534684 510:-0.023532769 511:-0.12073073 
